tree
version=v3
num_class=1
num_tree_per_iteration=1
label_index=0
max_feature_idx=9
objective=binary sigmoid:1
feature_names=app device os channel hour nip_day_test_hh nip_day_hh nip_hh_os nip_hh_app nip_hh_dev
feature_infos=2:12:15:18:3:9:14:1:8:21:20:24:13:64:6:11:23:26:25:28:27:17:10:19:22:29:151:5:82:36:35:103:150:183:45:46:4:16:58:74:80:109:33:185:215:37:72:88:93:94:118:128:134:170:315:536 1:2:3032:0:59 19:13:18:17:22:10:8:6:15:20:25:9:16:14:3:41:37:1:35:27:12:607:32:23:11:28:53:30:26:47:31:36:49:2:40:4:34:43:42:65:58:46:0:7:38:70:24:44:48:56:79:73:55:66:5:52:21:29:77:64:83:39:62:63:90:98:59:76:97:107:50:57:60:100:112:152:54:113:145 245:477:121:259:134:107:205:145:153:265:459:140:215:128:442:105:122:135:379:364:328:469:439:137:178:480:435:489:452:212:219:409:130:234:173:258:125:377:3:424:115:19:401:237:232:463:315:334:244:349:347:280:266:326:319:211:386:481:412:278:111:400:466:123:243:430:213:497:417:113:124:116:325:487:21:110:478:343:467:150:242:317:445:17:402:101:236:376:274:13:268:330:371:411:420:421:449:24:118:182 none [1:157] [1:157] [1:59] [1:44] [1:140]
tree_sizes=1061 1062 1076 1064 1059 917 1040 1066 1010 1213 1183 1116 1017 1054 1086 1094 1047 1154 1150 1245 1077 1117 1146 1195 1222 1094 1243 1150 1178 1069 1135 1081 1180 1277 1163 1075 1106 1163 1161 1181 1000 1052 1237 1183 1060 1080 1147 1045 1040 1120 1013 1235 1077 1175 1074 1120 1057 1085 1140 1104 1034 1197 1294 1110 1105 1369 1064 1209 1080 1202 1085 1217 1011 1037 1086 1041 1169 988 1123 1033 1039 1000 1011 1083 1105 1110 1015 1190 1090 1076 1024 1051 1043 1026 1107 1093 1042 1068 1017 1035 931 957 1210 1077 1100 1070 1008 1137 1198 1252 1159 1200 1115 1097 1110 1090 1068 1062 1255 1203 1243 1257 1206 1099 1066 1133 1118 1211 1127 1198 1110 1090 1092 1151 953 1026 1106 1042 1082 1085 1206 997 1190 1053 1200 1143 997 1033 1213 1104 1064 1171 1169 1019 1054 1196 1099 1076 1080 1052 1214 1159 1172 1116 1195 1123 1046 1033 870 994 1058 1103 963 1099 1036 1069 924 954 823 885 858 889 890 961 894 1117 896 895 1058 986 1110 1068 948 1014 1087 965 1009 924 1017 1095 1132 1074 1077 1127 1072 1105 1110 1083 1149 1035 1114 966 1037 1024 997 1025 981 953 926 902 937 1013 943 1011 944 968 977 944 1023 1076 1013 954 996 989 950 1008 1061 969 888 1005 883 900 911 995 1006 892 896 902 917 997 899 886 880 863 996 980 966 962 1006 992 902 922 1140 896 946 889 960 1037 996 1037 853 929 939 953 918 960 957 952 855 940 1078 989 989 896 844 993 1066 1158 965 1047 1033 1022 1060 1131 1064 1097 927 1163 992 1134 1106 1063 1009 1074 1072 1074 918 1080 1067 1020 1038 1024 1006 1019 1097 1014 1130 1084 1024 1079 994 991 946 1056 985 1081 1091 962 1063 1070 1069 1011 1091 1185 1045 1125 1073 971 1041 1064 1091 1010 1049 1062 1066 1058 1118 1034 1023 1027 1031 1141 1041 959 947 969 1062 996 1013 1020 999 1014 1032 1005 1042 996 1081 967 1099 1065 1179 915 1063 1024 1062 1062 1067 1057 969 978 936 1116 1035 1117 1080 1159 1139 1002 1009 981 1121 1058 1001 1112 1220 1276 1134 1046 1070 957 1140 1160 1121 960 1087 1126 986 1083 1105 1081 964 1102 1072 1274 1075 1086 1200 1069 1009 1081 1098 1036 1145 1239 1015 1036 1075 1086 1264 1089 1191 1103 1060 1118 1087 1034 1127 1121 1045 1103 1078 1163 1206 1075 1004 1010 1194 1050 1177 1212 997 1149 1193 1123 1161 1099 1141 1223 1105 1251 1151 1135 1168 1096 1218 1257 1254 1133 1158 1091 1227 1137 1211 1210 1094 1212 1111 1300 1059 1185 964 968 927 976 1028 1091 995 1090 1164 1091 1037 1280 1159 1162 1045 1197 1169 1197 1031 1334 1009 1036 1231 1115 1013 1031 1068 920 1151 1270 1145 1079 1232 1076 1006 1185 1208 1150 1014 1261 1126 1048 1166 1245 1038 1098 1151 1198 1056 1036 1172 935 907 940 990 969 972 951 1000 982 934 929 960 1037 1071 995 1041 941 866 918 1138 1066 970 1192 1063 1067 1108 1133 1110 1107 1215 1240 1116 1287 1093 1123 1158 1087 1083 1230 1182 1168 1075 1181 1085 1053 1082 1192 1059 1187 1102 1148 1097 1131 1033 1094 1148 939 1060 1055 1104 1059 1025 976 1071 968 1064 899 937 876 992 821 997 862 923 805 961 909 829 883 1104 1034 836 1010 1108 815 1016 1059 832 1097 1069 1009 920 989 847 1011 976 985 862 838 989 945 1074 988 1066 1023 880 1103 1143 1024 977 952 976 983 1085 1115 882 1177 944 1125

Tree=0
num_leaves=9
num_cat=1
split_feature=9 0 8 6 7 6 6 6
split_gain=415735 26174.4 60789.4 39098.4 27343.7 20825.6 13154.8 15811.5
threshold=1.5000000000000002 0 1.5000000000000002 15.500000000000002 2.5000000000000004 5.5000000000000009 2.5000000000000004 1.5000000000000002
decision_type=2 9 2 2 2 2 2 2
left_child=5 -2 3 4 -3 6 7 -1
right_child=1 2 -4 -5 -6 -7 -8 -9
leaf_value=13.558540993788622 -6.4111366623662134 11.020113278373277 -6.4370694964332058 30.829799026389239 -6.4370694964332058 30.265271694000184 -6.4370694964332058 27.274224204069519
leaf_weight=15.955502067343339 28.629398601362482 3.9977814225712773 3.4142242018133402 0.80258958181366302 1.1568858865648506 0.81493440072517742 0.31214756390545417 0.88723976863548226
leaf_count=5889 16234 1576 1936 159 656 166 177 207
internal_value=0 25.2345 50.9828 166.357 134.39 209.829 202.41 206.179
internal_weight=0 38.0009 9.37148 5.95726 5.15467 17.9698 17.1549 16.8427
internal_count=27000 20561 4327 2391 2232 6439 6273 6096
cat_boundaries=0 3
cat_threshold=127988302 0 1
shrinkage=1


Tree=1
num_leaves=9
num_cat=0
split_feature=5 9 5 5 7 5 5 5
split_gain=2.88802e+09 449934 1.54748e+15 5.92618e+13 65206.4 11079.8 1648.9 1493.8
threshold=1.5000000000000002 1.5000000000000002 9.5000000000000018 2.5000000000000004 2.5000000000000004 9.5000000000000018 2.5000000000000004 15.500000000000002
decision_type=2 2 2 2 2 2 2 2
left_child=-1 2 3 -2 5 6 -3 -6
right_child=1 4 -4 -5 7 -7 -8 -9
leaf_value=-49082.03349792269 -28628885640.746651 -12.565936595804788 -1394128309664.9937 -20.164653311953664 -0.10016340333041754 -4.6044133691895501 -10.307462499178435 -2.2850537950552612
leaf_weight=0.011996218323505723 7.2304495644112261e-10 5.6792869513883542 7.9609644210956826e-12 0.28408392589732345 9.893069645040665 3.0637195293855468 7.5040602088774904 4.5768886956002151
leaf_count=5922 210 4172 111 236 6075 2016 5347 2911
internal_value=0 -68.3194 -1321.03 -930.304 -56.7338 -100.215 -112.804 -7.9125
internal_weight=0 31.0011 0.284084 0.284084 30.717 16.2471 13.1833 14.47
internal_count=27000 21078 557 446 20521 11535 9519 8986
shrinkage=0.1


Tree=2
num_leaves=9
num_cat=0
split_feature=9 5 5 5 7 7 5 5
split_gain=7.49587e+08 4.39774e+16 169106 50356.5 182180 13830.7 11638.5 7913.79
threshold=1.5000000000000002 3.5000000000000004 8.5000000000000018 15.500000000000002 2.5000000000000004 1.5000000000000002 65.500000000000014 24.500000000000004
decision_type=2 2 2 2 2 2 2 2
left_child=1 -1 -3 -2 5 7 -7 -5
right_child=3 2 -4 4 -6 6 -8 -9
leaf_value=1297345612635.3491 -0.059927875685735148 -813.52947191171904 -127.25776301784468 -373.71509484240511 -20.277501024892004 -383.01552197876617 -686.29614100004028 -196.43694348043363
leaf_weight=2.6128634419150394e-10 385.5104206646206 0.0061453033251487156 0.008637085968075553 0.0042824822365074289 0.46586580457133775 0.0060065468170959748 0.0016030402051208092 0.0061119419950106391
leaf_count=6212 16474 131 123 278 2897 391 109 385
internal_value=0 225188 -4125.53 -1.00393 -323.401 -3444.68 -4469.05 -2694.75
internal_weight=0 0.0147824 0.0147824 385.994 0.48387 0.018004 0.00760959 0.0103944
internal_count=27000 6466 254 20534 4060 1163 500 663
shrinkage=0.1


Tree=3
num_leaves=9
num_cat=0
split_feature=5 9 5 5 5 5 7 9
split_gain=5.22562e+18 8.90623e+11 8.95598e+19 1.03483e+19 160534 3.13514e+06 1.54914e+07 160069
threshold=1.5000000000000002 1.5000000000000002 5.5000000000000009 2.5000000000000004 16.500000000000004 15.500000000000002 3.5000000000000004 88.500000000000014
decision_type=2 2 2 2 2 2 2 2
left_child=-1 2 3 -2 5 -3 -7 -6
right_child=1 4 -4 -5 7 6 -8 -9
leaf_value=-89022527655794.875 -21770330229963.844 -0.031636447809942132 29909998975974324 -10199999962999566 -389.52023107037076 19033.049208221 -389.52023346577516 -22.016546495948489
leaf_weight=6.5928365878501022e-12 9.0849470176930074e-13 427.09720742948281 0 0 0.021046133846375735 0.00051332032673071838 0.0020532813382348647 0.027128978240674537
leaf_count=5902 201 16498 167 184 3427 100 185 336
internal_value=0 -0.314335 -9.89571e+11 -3.29853e+14 -0.312228 -0.106335 34949.9 -1825.67
internal_weight=0 427.148 9.08495e-13 9.08495e-13 427.148 427.1 0.0025666 0.0481751
internal_count=27000 21098 552 385 20546 16783 285 3763
shrinkage=0.1


Tree=4
num_leaves=9
num_cat=0
split_feature=6 8 6 6 6 6 7 8
split_gain=6.17824e+17 4.89995e+16 1.84632e+08 inf inf 9.60406e+18 inf 9.99998e+14
threshold=1.5000000000000002 14.500000000000002 16.500000000000004 91.500000000000014 82.500000000000014 15.500000000000002 6.5000000000000009 10.500000000000002
decision_type=2 2 2 2 2 2 2 2
left_child=-1 2 5 4 -4 -2 -7 -5
right_child=1 -3 3 7 -6 6 -8 -9
leaf_value=19989767552638.555 -0.038145545651902105 -1.7976931348623158e+307 1.7976931348623158e+307 86509.957913458755 -0 -1.7976931348623158e+307 -99999999637250.625 -99999967873525.438
leaf_weight=1.5460409930136153e-11 388.54732376682887 -1.0000000036274937e-15 -1.0000000036274937e-15 0.0001129348413542175 0 -1.0000000036274937e-15 0 3.1763735522036263e-22
leaf_count=5925 16955 576 2823 210 131 147 125 108
internal_value=0 -0.280052 -0.262037 1.27861e+06 1.79769e+308 -0.633677 -1.79769e+308 856245
internal_weight=0 388.547 388.547 0.000112935 -1e-15 388.547 -1e-15 0.000112935
internal_count=27000 21075 20499 3272 2954 17227 272 318
shrinkage=0.1


Tree=5
num_leaves=9
num_cat=0
split_feature=6 6 6 6 6 6 9 9
split_gain=9.16273e+21 inf inf inf inf 9.74169e+18 inf 8e+17
threshold=16.500000000000004 153.00000000000003 124.00000000000001 91.500000000000014 82.500000000000014 15.500000000000002 15.500000000000002 84.500000000000014
decision_type=2 2 2 2 2 2 2 2
left_child=5 2 3 4 -2 -1 -7 -5
right_child=1 -3 -4 7 -6 6 -8 -9
leaf_value=0.80496430245826955 -1.7976931348623158e+307 -4499999983676278.5 -2399999991294015.5 -4999999981862531 -0 1.7976931348623158e+307 -0 -8999999967352557
leaf_weight=419.80260692260788 -1.0000000036274937e-15 0 0 0 0 -1.0000000036274937e-15 0 0
leaf_count=22870 3146 146 129 102 156 159 133 159
internal_value=0 -1.79769e+308 -1.79769e+308 -1.79769e+308 -1.79769e+308 8.28475 1.79769e+308 -1.4e+17
internal_weight=0 -1e-15 -1e-15 -1e-15 -1e-15 419.803 -1e-15 0
internal_count=27000 3838 3692 3563 3302 23162 292 261
shrinkage=0.1


Tree=6
num_leaves=9
num_cat=2
split_feature=6 6 6 7 6 3 0 6
split_gain=9.35089e+18 inf inf inf 9.90918e+17 5009.15 1383.08 831.552
threshold=91.500000000000014 153.00000000000003 124.00000000000001 12.500000000000002 1.5000000000000002 0 1 2.5000000000000004
decision_type=2 2 2 2 2 9 9 2
left_child=4 2 3 -2 -1 6 -6 -7
right_child=1 -3 -4 -5 5 7 -8 -9
leaf_value=29232348249020.145 1.7976931348623158e+307 -199999999274501.25 -0 -99999999637250.625 1.9706404703763174 0.001461167252788725 0.29795804559664418 -0.21869139781017163
leaf_weight=1.1595057447601209e-11 -1.0000000036274937e-15 0 0 0 4.5172447205164987 208.6756530725329 32.049618993552329 964.88432608256221
leaf_count=5884 142 140 138 108 101 4340 123 16024
internal_value=0 1.79769e+308 1.79769e+308 1.79769e+308 1.39994 -1.40126 8.83403 -1.78028
internal_weight=0 -1e-15 -1e-15 -1e-15 1210.13 1210.13 36.5669 1173.56
internal_count=27000 528 388 250 26472 20588 224 20364
cat_boundaries=0 11 12
cat_threshold=2097152 0 0 0 0 0 2097152 0 0 0 134234112 524800
shrinkage=0.1


Tree=7
num_leaves=9
num_cat=3
split_feature=5 0 5 0 7 0 5 8
split_gain=4e+15 49330.3 11532.5 35356.4 50518.7 4297.02 1910.32 inf
threshold=153.00000000000003 0 2.5000000000000004 1 1.5000000000000002 2 91.500000000000014 15.500000000000002
decision_type=2 9 2 9 2 9 2 2
left_child=1 -1 3 4 -3 -5 -4 -8
right_child=-2 2 6 5 -6 -7 7 -9
leaf_value=2.5078175419509647 -1.7976931348623158e+307 52.874211722219563 -0.18764187327505041 -0.060262340334315448 -0.14193108595737644 0.93603458987971389 -1.7976931348623158e+307 -0.19999999999999998
leaf_weight=69.847440525350805 -1.0000000036274937e-15 1.3162026006410181 973.45912468327833 129.29164210610128 0.20816248016589625 56.043421724308388 -1.0000000036274937e-15 6.5
leaf_count=194 141 1778 16099 5548 636 2224 250 130
internal_value=0 1.03641 -0.612441 6.58187 60.3622 2.73504 -1.99051 -19.0769
internal_weight=0 1236.67 1166.82 186.859 1.52437 185.335 979.959 6.5
internal_count=27000 26859 26665 10186 2414 7772 16479 380
cat_boundaries=0 2 3 6
cat_threshold=525312 8 536887816 407279652 0 262144
shrinkage=0.1


Tree=8
num_leaves=8
num_cat=2
split_feature=9 8 3 2 7 6 6
split_gain=1.00154e+06 1.2488e+06 1157.23 272.423 428.924 363.502 223.385
threshold=1.5000000000000002 1.5000000000000002 0 1 1.5000000000000002 15.500000000000002 3.5000000000000004
decision_type=2 2 9 9 2 2 2
left_child=1 -1 -2 -4 5 -5 -6
right_child=2 -3 3 4 6 -7 -8
leaf_value=65.726714365860744 0.24516351186738994 -1.1078280633360671 0.091177712609234782 -0.38811219676181924 -0.060524876184918676 -0.17083643814998728 -0.19049465688211642
leaf_weight=5.2023737067256643 57.279160456264862 6.0433473102748394 32.135572658024842 190.68430306663322 167.07789980860616 129.14988960605115 634.24431864235999
leaf_count=6284 125 158 157 5056 4458 636 10126
internal_value=0 298.104 -1.70718 -1.91836 -2.00682 -3.00376 -1.63396
internal_weight=0 11.2457 1210.57 1153.29 1121.16 319.834 801.322
internal_count=27000 6442 20558 20433 20276 5692 14584
cat_boundaries=0 16 18
cat_threshold=0 0 0 0 0 0 0 0 0 0 8404992 0 0 0 0 128 0 2097152
shrinkage=0.1


Tree=9
num_leaves=9
num_cat=3
split_feature=5 9 5 5 3 3 5 2
split_gain=4.3717e+18 6244.36 inf inf 955.569 317.646 400.241 352.576
threshold=1.5000000000000002 1.5000000000000002 10.500000000000002 3.5000000000000004 0 1 16.500000000000004 2
decision_type=2 2 2 2 9 9 2 9
left_child=-1 2 3 -2 -3 7 -7 -6
right_child=1 4 -4 -5 5 6 -8 -9
leaf_value=146161741245098.94 1.7976931348623158e+307 0.17237235443582233 -1.8628519229755165 -6799999975333043 0.1261191385956458 -0.30241352590684367 -0.1588369150149978 -0.13364234663222013
leaf_weight=2.045363078985461e-12 -1.0000000036274937e-15 79.231041888873477 4.1192653626203537 0 60.445762588371068 301.37330379364369 545.75679757073522 220.08186007570646
leaf_count=5896 306 233 104 146 207 13801 3095 3212
internal_value=0 -1.39448 37.4737 1.79769e+308 -1.52714 -1.75527 -2.07466 -0.752566
internal_weight=0 1211.01 4.11927 -1e-15 1206.89 1127.66 847.13 280.528
internal_count=27000 21104 556 452 20548 20315 16896 3419
cat_boundaries=0 16 32 34
cat_threshold=2097152 0 0 268435456 4194304 0 0 262144 0 0 8404992 0 0 0 0 128 131072 0 0 536903680 131072 0 1048576 524288 4195336 134217728 536871232 0 268763140 536887296 786432 131072 131072 2097152
shrinkage=0.1


Tree=10
num_leaves=9
num_cat=3
split_feature=9 8 3 0 9 8 2 9
split_gain=3.16176e+07 4.6508e+18 875.592 644.164 18350.1 2347.39 520.479 273.773
threshold=1.5000000000000002 1.5000000000000002 0 1 2.5000000000000004 1.5000000000000002 2 2.5000000000000004
decision_type=2 2 9 9 2 2 9 2
left_child=1 -1 6 4 5 -4 -2 -5
right_child=2 -3 3 7 -6 -7 -8 -9
leaf_value=-75377630481977.063 0.12759734814232046 -8.4664941494723021 -7.0013353036745629 -0.021069353624423314 -0.17586298398423963 -2.1996914125974452 -0.10347700633883697 -0.18164674387763688
leaf_weight=8.1844523159527266e-12 156.72867427253829 1.2435104064643381 4.5026930918575694 132.31357431398317 130.50646570916851 1.3156155477864455 224.8098588317053 537.45284172557604
leaf_count=6263 724 154 863 2843 3244 148 2803 9958
internal_value=0 -5046.42 -1.35402 -1.93342 -3.92074 -59.156 -0.0772155 -1.47719
internal_weight=0 1.24351 1187.63 806.091 136.325 5.81831 381.539 669.766
internal_count=27000 6417 20583 17056 4255 1011 3527 12801
cat_boundaries=0 16 17 19
cat_threshold=2228224 0 0 268468256 4325376 0 1048576 786432 4195336 134217728 8405248 0 268763140 545275904 524288 131200 17928 5637120 2097152
shrinkage=0.1


Tree=11
num_leaves=9
num_cat=3
split_feature=5 8 0 0 3 5 5 5
split_gain=186435 4.3483e+08 2.36478e+06 1861.98 983.217 369.409 617.461 7924.67
threshold=2.5000000000000004 1.5000000000000002 0 1 2 16.500000000000004 9.5000000000000018 15.500000000000002
decision_type=2 2 9 9 9 2 2 2
left_child=1 2 -1 -4 -2 6 -6 -8
right_child=4 -3 3 -5 5 -7 7 -9
leaf_value=-50.889912339825514 0.16982336646554319 -805247.38412186294 -0.19416974097423939 -0.98516971494665351 -0.22269144089765472 -0.12940722798150331 -7.9731441385517927 -0.29736086794174504
leaf_weight=1.7259365923542273e-05 88.824644513409609 6.7060145444433947e-06 65.091620721621439 110.90802218650958 224.14222891338443 609.82882010370668 1.430896211424854 22.417016871335363
leaf_count=7365 321 749 320 1869 10275 3752 2062 287
internal_value=0 -36.818 -36.5112 -7.18794 -1.37457 -1.69281 -2.74161 -7.57915
internal_weight=0 176 176 176 946.644 857.819 247.99 23.8479
internal_count=27000 10303 9554 2189 16697 16376 12624 2349
cat_boundaries=0 3 6 22
cat_threshold=18936398 0 1 4195616 8 262144 0 0 0 0 0 0 0 0 0 0 8404992 0 0 8388608 0 128
shrinkage=0.1


Tree=12
num_leaves=7
num_cat=3
split_feature=5 9 3 5 3 2
split_gain=1.38283e+19 8.83409e+07 652.996 346.687 358.754 225.157
threshold=1.5000000000000002 1.5000000000000002 0 3.5000000000000004 1 2
decision_type=2 2 9 2 9 9
left_child=-1 -2 -3 4 -4 -5
right_child=1 2 3 5 -6 -7
leaf_value=-235135559380025.16 -21975.455174137718 0.22818732199801933 -0.15631437393966496 0.10816146782880497 0.072786666051342208 -0.15429679294453963
leaf_weight=2.5001104298719252e-12 0.0018293219754913484 53.623390418301938 97.71536694991633 30.772759490119306 177.39124223039764 686.18096884190311
leaf_count=5914 541 127 4377 102 2845 13094
internal_value=0 -1.26126 -0.876826 -1.05988 -0.116241 -1.43675
internal_weight=0 1045.69 1045.68 992.06 275.107 716.954
internal_count=27000 21086 20545 20418 7222 13196
cat_boundaries=0 16 32 34
cat_threshold=0 0 0 0 0 0 0 0 0 0 8404992 0 0 0 0 128 0 0 0 101861376 33558720 8192 135274496 2097152 16777728 2684354560 134218016 167772160 0 67633152 1612709888 514 0 2101248
shrinkage=0.1


Tree=13
num_leaves=9
num_cat=2
split_feature=0 5 8 7 9 5 0 7
split_gain=95337.9 19115.6 7.29e+17 inf 3.45432e+16 9.77423e+18 12816.6 7908.26
threshold=0 2.5000000000000004 1.5000000000000002 1.5000000000000002 1.5000000000000002 5.5000000000000009 1 1.5000000000000002
decision_type=9 2 2 2 2 2 9 2
left_child=-1 2 6 -4 5 -3 7 -2
right_child=1 4 3 -5 -6 -7 -8 -9
leaf_value=8.5065257907632184 3.4632189086647687 -8698358655294.6563 -1.7976931348623158e+307 -299999998911751.94 -0.092450188173142739 -9899999964087814 0.3084782294344135 -0.18802952100029058
leaf_weight=3.5445767447363323 37.956150961082521 1.0221815394909168e-12 -1.0000000036274937e-15 0 872.31353293659492 0 93.499433457792122 7.0307615995407096
leaf_count=174 1183 166 194 537 16271 152 7908 415
internal_value=0 0.586895 11.507 -1.79769e+308 -1.14002 -1.83741e+14 11.7019 23.6654
internal_weight=0 1010.8 138.486 -1e-15 872.314 1.02218e-12 138.486 44.9869
internal_count=27000 26826 10237 731 16589 318 9506 1598
cat_boundaries=0 1 3
cat_threshold=525312 537935912 8
shrinkage=0.1


Tree=14
num_leaves=9
num_cat=4
split_feature=5 0 0 2 7 5 5 2
split_gain=1.11915e+19 557.586 302.433 536.388 530.924 436.493 326.852 301.202
threshold=1.5000000000000002 0 1 2 1.5000000000000002 15.500000000000002 3.5000000000000004 3
decision_type=2 9 9 9 2 2 2 9
left_child=-1 -2 3 -3 5 -4 -6 -5
right_child=1 2 4 7 6 -7 -8 -9
leaf_value=350788178988236.63 -0.81667221818910418 0.53368918726279635 -0.43064348472611463 0.028172321222097854 0.048843577463525537 -0.12978888919573026 -0.14709373115716209 -0.1895345905916552
leaf_weight=9.0849470176930074e-13 2.4281424467162651 6.2202002284940399 109.74972456843074 155.45570321322714 109.16938733370523 86.022207118570805 386.73545971889752 97.197286222338732
leaf_count=5878 123 136 4815 1028 4017 622 8817 1564
internal_value=0 -1.33404 -1.21786 -0.260337 -1.56741 -2.98448 -1.0396 -0.596084
internal_weight=0 952.978 950.55 258.873 691.677 195.772 495.905 252.653
internal_count=27000 21122 20999 2728 18271 5437 12834 2592
cat_boundaries=0 1 6 7 9
cat_threshold=525312 536873760 0 0 0 8388608 262144 71447553 32773
shrinkage=0.1


Tree=15
num_leaves=9
num_cat=2
split_feature=5 9 5 5 5 3 5 2
split_gain=1.05369e+19 25070.9 4e+19 7.89031e+18 1.5601e+18 615.767 171.317 265.246
threshold=1.5000000000000002 1.5000000000000002 2.5000000000000004 9.5000000000000018 3.5000000000000004 0 3.5000000000000004 1
decision_type=2 2 2 2 2 9 2 9
left_child=-1 2 -2 4 -4 -3 7 -7
right_child=1 5 3 -5 -6 6 -8 -9
leaf_value=-178773007837564.38 -3.2283561831306926 0.22933377868311658 -11258999068426240 -4499999983676278.5 -5499999980048785 0.051360728821284875 -0.13164924019603583 -0.16331886980896182
leaf_weight=3.2959182939232374e-12 5.7482168674466712 51.152622340139146 -1.1182158392736849e-16 0 0 147.14898417517082 609.72173400966619 81.719002121725509
leaf_count=5927 203 118 100 102 136 3306 13191 3917
internal_value=0 -1.24748 -67.077 -2.2518e+17 -1.74514e+17 -0.822184 -1.02732 -0.30184
internal_weight=0 895.491 5.74822 -1.11822e-16 -1.11822e-16 889.742 838.59 228.868
internal_count=27000 21073 541 338 236 20532 20414 7223
cat_boundaries=0 16 17
cat_threshold=0 0 0 0 0 0 0 0 0 0 8404992 0 0 0 0 128 532480
shrinkage=0.1


Tree=16
num_leaves=9
num_cat=4
split_feature=0 5 0 8 7 0 0 7
split_gain=139820 12427.6 31677.7 4e+15 153873 1034.12 3911.52 990.107
threshold=0 2.5000000000000004 1 1.5000000000000002 1.5000000000000002 2 3 1.5000000000000002
decision_type=9 2 9 2 2 9 9 2
left_child=-1 2 3 4 -2 7 -7 -4
right_child=1 -3 5 -5 -6 6 -8 -9
leaf_value=8.0666690255527769 25.563709559110777 -0.11536128465329934 -2.2688821238278134 -112589990684262.41 -0.23748745692672801 0.04148158278042987 1.7925771359833662 -0.27716924359096601
leaf_weight=12.310788933533329 3.6790163437319165 702.25642745958748 3.3321703616530103 7.7635683577275674e-16 6.2181438133120537 83.067519253119826 5.7216532692384012 9.9452198669313958
leaf_count=193 1884 16636 4012 140 577 1309 853 1396
internal_value=0 0.401415 10.1907 46.425 93.5345 1.93867 3.24356 -4.43212
internal_weight=0 814.22 111.964 9.89716 9.89716 102.067 88.7892 13.2774
internal_count=27000 26807 10171 2601 2461 7570 2162 5408
cat_boundaries=0 2 3 4 5
cat_threshold=525312 8 537936424 421574662 262400
shrinkage=0.1


Tree=17
num_leaves=9
num_cat=2
split_feature=9 3 9 7 2 8 9 7
split_gain=1.83301e+07 997.182 1214.78 753.411 463.475 259.234 217.466 100.958
threshold=1.5000000000000002 0 2.5000000000000004 1.5000000000000002 1 1.5000000000000002 6.5000000000000009 1.5000000000000002
decision_type=2 9 2 2 9 2 2 2
left_child=-1 4 3 -3 5 6 -2 -6
right_child=1 2 -4 -5 7 -7 -8 -9
leaf_value=678.17851161439057 0.10189899031067583 -0.94670823247559088 -0.14833286397409448 -0.20974530563556534 -0.21995854643693816 -0.14254486931808222 0.35737343452453774 -0.052847476734334424
leaf_weight=0.39861051086177113 98.929781893710455 33.510393775108824 393.11696775711675 23.670952853663991 48.81419877783037 28.225624458499226 50.240154542042504 139.3693636116613
leaf_count=6443 663 1482 12729 2305 712 648 126 1892
internal_value=0 -1.09198 -2.06391 -6.41633 0.157344 1.28135 1.87942 -0.913417
internal_weight=0 815.877 450.298 57.1813 365.579 177.396 149.17 188.184
internal_count=27000 20557 16516 3787 4041 1437 789 2604
cat_boundaries=0 16 18
cat_threshold=131072 0 0 302022656 4325376 0 1048576 786432 4195336 0 16384 0 4 8404992 0 131200 402432 2097152
shrinkage=0.1


Tree=18
num_leaves=9
num_cat=2
split_feature=5 1 5 8 5 8 3 5
split_gain=4.3717e+18 1985.43 22697.8 49432.1 2706.7 54678.4 747.337 1932.83
threshold=1.5000000000000002 0 3.5000000000000004 1.5000000000000002 15.500000000000002 1.5000000000000002 1 2.5000000000000004
decision_type=2 9 2 2 2 2 9 2
left_child=-1 6 3 -3 5 -4 -2 -8
right_child=1 2 4 -5 -6 -7 7 -9
leaf_value=146161741245098.5 0.00024607048555818863 -11.606258341279727 -1.6277362676487368 -183.86110151642868 -0.21021688992797039 -103.90674661476815 -0.73167221625088841 -0.12927538199009822
leaf_weight=2.045363078985461e-12 292.20421222124355 1.3377886386155147 3.8773357137314752 0.016869735380692918 29.023114026607661 0.052983073481098208 61.54279106634192 395.92011779642814
leaf_count=5862 3061 217 248 111 439 387 3603 13072
internal_value=0 -1.69245 -8.24819 -137.514 -5.43729 -30.0652 -1.26552 -2.05817
internal_weight=0 783.975 34.3081 1.35466 32.9534 3.93032 749.667 457.463
internal_count=27000 21138 1402 328 1074 635 19736 16675
cat_boundaries=0 1 17
cat_threshold=2 131072 0 0 302022656 4325376 0 0 786432 4194304 0 8388864 0 268763136 545275904 0 131200
shrinkage=0.1


Tree=19
num_leaves=9
num_cat=4
split_feature=5 8 9 5 3 3 3 3
split_gain=240951 7.84e+17 1.83029e+17 1.04716e+19 210590 21724.2 1414.09 706.053
threshold=2.5000000000000004 1.5000000000000002 1.5000000000000002 5.5000000000000009 0 1 2 3
decision_type=2 2 2 2 9 9 9 9
left_child=1 4 3 -2 -1 6 -6 -4
right_child=2 -3 7 -5 5 -7 -8 -9
leaf_value=-15.456815538938109 -44420269762150.43 -1.7976931348623158e+307 0.11168786850039597 -10299999962636814 -0.17628459761614818 -3.8029793757941897 -1.4771876380422686 -0.12571771125421197
leaf_weight=7.3295611740633877 2.2637367543960459e-13 -1.0000000036274937e-15 161.05586042409874 0 41.91471031006904 75.712572363778833 6.0785857712679805 479.8652240834835
leaf_count=3831 178 734 1162 166 188 5105 401 15235
internal_value=0 -48.0424 -0.981086 -8.97201e+14 -47.8287 -26.84 -5.67356 -0.662794
internal_weight=0 131.035 640.921 2.26374e-13 131.035 123.706 47.9933 640.921
internal_count=27000 10259 16741 344 9525 5694 589 16397
cat_boundaries=0 15 31 36 52
cat_threshold=0 0 0 67110912 33554433 0 0 2097152 520 0 0 0 0 0 536872960 0 0 0 269500448 4325376 0 0 262144 1024 2684354560 8388640 4096 65536 16386 1074528256 131202 0 0 0 0 131072 0 0 0 0 0 0 0 0 8 0 8404992 0 0 8388608 0 128
shrinkage=0.1


Tree=20
num_leaves=9
num_cat=2
split_feature=6 9 6 6 6 0 2 8
split_gain=3.35387e+19 102433 2.1025e+19 1.98895e+18 5.20832e+18 451.39 515.3 268.309
threshold=1.5000000000000002 1.5000000000000002 2.5000000000000004 10.500000000000002 3.5000000000000004 0 1 1.5000000000000002
decision_type=2 2 2 2 2 9 9 2
left_child=-1 2 -2 4 -4 6 7 -3
right_child=1 5 3 -5 -6 -7 -8 -9
leaf_value=-572527921378826.88 -17.600000000006073 0.18212999409980535 -10308239147092470 -4099999985127276 -99999999637250.625 -0.1580782728629995 -0.11832780780263213 -0.13249671277562916
leaf_weight=1.0221815394909168e-12 0.99999999999965794 152.80198679055061 -7.9928146485283916e-19 0 0 294.48268644329039 159.54882987854432 32.949307342056812
leaf_count=5891 204 934 103 101 142 15709 3068 848
internal_value=0 -1.19901 -321 -1.45116e+17 -1.04083e+17 -0.699148 0.0957447 1.19867
internal_weight=0 640.783 1 -7.99281e-19 -7.99281e-19 639.783 345.3 185.751
internal_count=27000 21109 550 346 245 20559 4850 1782
cat_boundaries=0 5 7
cat_threshold=538182400 16 0 0 8388608 4595712 2097152
shrinkage=0.1


Tree=21
num_leaves=9
num_cat=3
split_feature=6 1 6 8 6 6 3 2
split_gain=9.94804e+18 1542.16 104168 1.27198e+10 1181.17 946.328 802.673 372.768
threshold=1.5000000000000002 0 3.5000000000000004 1.5000000000000002 16.500000000000004 8.5000000000000018 1 2
decision_type=2 9 2 2 2 2 9 9
left_child=-1 6 3 -3 5 -4 7 -2
right_child=1 2 4 -5 -6 -7 -8 -9
leaf_value=311811714656210.75 0.1055458884014196 -59.742879254822085 -0.11630753204838412 -74822430.838031903 -0.12282353298415694 -3.4768056918051204 -0.17838400514223901 -0.15908096047771397
leaf_weight=1.0221815394909168e-12 236.0413321454607 0.23834133130942525 1.4042722495275661 2.2720458402769673e-08 19.57822807818685 2.0780025017516359 313.16809350221723 59.055200272996075
leaf_count=5896 1883 206 424 107 381 256 16596 1251
internal_value=0 -1.08297 -7.7276 -668.755 -4.24657 -21.2164 -0.690072 0.4911
internal_weight=0 631.563 23.2988 0.238341 23.0605 3.48227 608.265 295.097
internal_count=27000 21104 1374 313 1061 680 19730 3134
cat_boundaries=0 1 15 17
cat_threshold=2 0 0 0 33554432 131072 0 0 0 8 0 8404992 0 0 8388608 5120000 2097152
shrinkage=0.1


Tree=22
num_leaves=9
num_cat=5
split_feature=0 6 3 0 3 7 7 1
split_gain=221738 20317.3 46442.2 3502.6 8626.01 3296.14 2334.73 593.14
threshold=0 2.5000000000000004 1 2 3 1.5000000000000002 1.5000000000000002 4
decision_type=9 2 9 9 9 2 2 9
left_child=-1 2 6 5 -5 -4 -2 -3
right_child=1 7 3 4 -6 -7 -8 -9
leaf_value=14.533109055712609 17.970486904653477 -0.057329413878651717 -0.70210224133517762 0.030874794841014658 3.2451786234625262 -17.839216011030913 12.095168086376921 -0.52692189052334093
leaf_weight=0.93270684170598439 5.2438940274699357 465.10452966747755 24.751623363133305 40.091465190292936 1.7682450988211389 0.11274674760541968 0.77650587753404543 19.272215729644245
leaf_count=188 1124 15476 5589 302 910 1911 338 1162
internal_value=0 1.43378 17.0425 2.65199 7.66233 -5.5614 64.6846 -0.880753
internal_weight=0 557.121 72.7445 66.7241 41.8597 24.8644 6.0204 484.377
internal_count=27000 26812 10174 8712 1212 7500 1462 16638
cat_boundaries=0 2 18 19 35 36
cat_threshold=525312 8 524288 0 0 33554432 0 0 2097152 1048576 8 0 8388608 0 0 256 0 1 19198478 0 0 0 0 135168 8192 134217728 0 1024 0 32 33554432 0 0 0 2 3
shrinkage=0.1


Tree=23
num_leaves=9
num_cat=3
split_feature=3 5 5 9 5 3 2 7
split_gain=120780 2.5181e+21 15618.7 8.13463e+16 1.40525e+18 20728.5 19425.6 110506
threshold=0 1.5000000000000002 2.5000000000000004 1.5000000000000002 9.5000000000000018 1 2 1.5000000000000002
decision_type=9 2 2 2 2 9 9 2
left_child=1 -1 5 4 -4 -2 7 -7
right_child=2 -3 3 -5 -6 6 -8 -9
leaf_value=1.6837832591435366e+17 -1.4822188249884123 -1.5277165433603961 -43100855808819.531 -0.054914389249510656 -3799999986215524 15.809303306724601 0.38349417132272473 -0.21808413577805152
leaf_weight=-1.1182158392736849e-16 14.690522545642425 5.5811966757564608 2.2637367543960459e-13 482.61369705563163 0 7.9482685884985598 36.485992278751951 9.3771980074237948
leaf_count=183 5969 441 228 16092 102 1503 1883 599
internal_value=0 90.5088 1.15376 -0.830943 -5.98134e+14 15.3049 22.1651 45.2368
internal_weight=0 5.5812 551.116 482.614 2.26374e-13 68.502 53.8115 17.3255
internal_count=27000 624 26376 16422 330 9954 3985 2102
cat_boundaries=0 14 30 31
cat_threshold=524288 0 0 131104 0 0 2097152 1048576 0 0 0 0 0 256 8 0 0 772819456 705 0 8396800 2098176 512 536870912 134234112 167772160 0 8388610 539492368 640 4794368
shrinkage=0.1


Tree=24
num_leaves=9
num_cat=4
split_feature=5 5 3 3 7 0 5 0
split_gain=5.94717e+18 4398.77 6889.88 637.532 582.688 209.652 292.727 198.313
threshold=1.5000000000000002 2.5000000000000004 0 1 1.5000000000000002 2 3.5000000000000004 3
decision_type=2 2 9 9 2 9 2 9
left_child=-1 2 4 -3 -2 -5 -7 -4
right_child=1 3 7 5 -6 6 -8 -9
leaf_value=417579841757729.63 -7.675318508557786 0.16570001542573454 -0.0258395843977214 -0.013438854769227106 -5.6859360237826939 -0.44881611871053195 -0.14585065982275222 -0.45107280973856484
leaf_weight=3.400605131612206e-13 4.2348270106351649 80.06951473546485 36.462691093830607 117.45656752018766 2.2569965017582874 36.87399212070585 236.02713851561043 12.604365527271844
leaf_count=5883 1150 321 287 1359 1553 2917 12138 1392
internal_value=0 -1.79655 -10.2114 -0.802732 -27.4905 -1.316 -1.80184 -1.92947
internal_weight=0 525.986 55.5589 470.427 6.49182 390.358 272.901 49.0671
internal_count=27000 21117 4382 16735 2703 16414 15055 1679
cat_boundaries=0 16 32 37 40
cat_threshold=524288 0 0 101190144 4165 8192 10485760 3145984 16777736 0 134234112 33554432 131072 75497728 536870912 1 0 0 0 0 0 0 0 0 0 0 8404992 0 0 8388608 0 128 13631776 0 0 0 8388608 226492672 0 1
shrinkage=0.1


Tree=25
num_leaves=9
num_cat=4
split_feature=5 5 0 7 0 2 2 5
split_gain=2.50254e+19 1768.01 1022.11 4025.92 525.622 494.028 164.563 87.3551
threshold=1.5000000000000002 2.5000000000000004 0 1.5000000000000002 1 2 3 16.500000000000004
decision_type=2 2 9 2 9 9 9 2
left_child=-1 2 -2 -4 5 -3 -7 -6
right_child=1 4 3 -5 7 6 -8 -9
leaf_value=-428296429406346 -0.047755005788489194 0.61186089190206072 -2.3719694837234555 -0.29287780874294517 -0.2393172532324718 0.057682358420789615 -0.14805455982466306 -0.11803753866280869
leaf_weight=1.3632420526557649e-12 36.750163509531419 4.8437560992145166 14.833499767817875 25.028319633443381 97.661900657673868 162.46061169157173 40.302867508496007 151.54961697897045
leaf_count=5877 482 122 1582 2316 11007 1346 1091 3177
internal_value=0 -1.39522 -5.84078 -8.52653 -0.649668 0.532275 0.117519 -1.59178
internal_weight=0 533.431 76.612 39.8618 456.819 207.607 202.763 249.212
internal_count=27000 21123 4380 3898 16743 2559 2437 14184
cat_boundaries=0 3 8 9 11
cat_threshold=511705408 0 1 542116640 0 0 0 8388608 262144 4727808 2097152
shrinkage=0.1


Tree=26
num_leaves=9
num_cat=4
split_feature=0 3 6 8 3 6 3 6
split_gain=32878.6 6043 2.23831e+19 7207.13 3779.73 9.22337e+18 1417.43 1.5833e+14
threshold=0 1 1.5000000000000002 1.5000000000000002 2 1.5000000000000002 3 1.5000000000000002
decision_type=9 9 2 2 9 2 9 2
left_child=-1 2 -2 -4 5 -3 7 -6
right_child=1 4 3 -5 6 -7 -8 -9
leaf_value=3.2554170579338368 11225221727623578 -7205759403792796 10.79443764652123 -0.3461404917781189 -2638827906662.3003 -2.7573984564473863 0.082959750727672893 -0.30682620384651893
leaf_weight=22.726964404026162 7.7635683577275674e-16 7.7635683577275674e-16 0.77119558873294591 2.3507817307486532 2.2637367543960459e-13 4.0156191333323621 318.69739834972182 137.87078639979643
leaf_count=134 118 169 192 116 3578 553 9476 12664
internal_value=0 -0.254492 20.9198 24.0582 -0.839518 -17.0329 -0.335079 -2.90134
internal_weight=0 463.706 3.12198 3.12198 460.584 4.01562 456.568 137.871
internal_count=27000 26866 426 308 26440 722 25718 16242
cat_boundaries=0 2 18 32 47
cat_threshold=537395200 8 0 0 0 0 0 0 0 0 0 0 16384 0 0 0 0 1 524288 0 0 131072 0 0 0 1048576 0 0 0 33554432 0 256 8 0 0 604506656 33558725 8192 8921088 2098176 16777732 2684354560 134217760 4096 131072 67108864 538970112
shrinkage=0.1


Tree=27
num_leaves=9
num_cat=4
split_feature=0 3 9 1 9 9 8 3
split_gain=53383.1 5233.93 2.31986e+19 1871.17 7.0065e+15 10947.8 8654.66 233.006
threshold=0 1 1.5000000000000002 2 1.5000000000000002 2.5000000000000004 1.5000000000000002 3
decision_type=9 9 2 9 2 2 2 9
left_child=-1 2 -2 4 -3 6 -5 -6
right_child=1 3 -4 5 7 -7 -8 -9
leaf_value=6.3678167480623822 -11427884054452632 2076000881662.7461 -1.2839655467354765 -16.426292911537498 0.055960210982478234 -0.41685578876634088 -2.125602751765431 -0.09039343191108111
leaf_weight=3.1655210848744115 7.7635683577275674e-16 1.6256217794187465e-11 10.472909961119187 0.8517189348913109 150.9002128579387 7.4944685231855139 0.84111080039292574 345.10771163940979
leaf_count=126 250 5484 769 591 1294 634 315 17537
internal_value=0 -0.798885 -16.4837 -0.160094 0.210562 -9.8516 -93.2076 -0.465626
internal_weight=0 515.668 10.4729 505.195 496.008 9.1873 1.69283 496.008
internal_count=27000 26874 1019 25855 24315 1540 906 18831
cat_boundaries=0 2 18 19 35
cat_threshold=537395200 8 524288 0 0 131072 0 0 0 1048576 0 0 0 33554432 0 256 0 1 2 0 0 0 0 0 0 0 0 8 0 16384 0 0 8388608 0 128
shrinkage=0.1


Tree=28
num_leaves=9
num_cat=2
split_feature=5 1 5 5 5 7 3 5
split_gain=2.04924e+18 2144.89 1.3599e+15 5.92802e+18 1589.99 124793 978.98 1816.14
threshold=1.5000000000000002 0 3.5000000000000004 2.5000000000000004 16.500000000000004 5.5000000000000009 1 2.5000000000000004
decision_type=2 9 2 2 2 2 9 2
left_child=-1 6 3 -3 5 -4 7 -2
right_child=1 2 4 -5 -6 -7 -8 -9
leaf_value=150105322055270.41 -1.6361342127079794 -439883653203.34027 -0.93993051207229206 -7699999972068300 -0.15549344398402667 -527.2870294462333 -0.018148292939305231 -0.24770482027577412
leaf_weight=9.0849470176930074e-13 10.523189797563345 1.9776957049878758e-11 0.42739945212725616 0 4.8448904774213126 0.0045524647867815054 388.87350306032135 89.958139255471664
leaf_count=5899 2377 172 583 152 382 107 9176 8152
internal_value=0 -1.34837 -13.0626 -8.29206e+12 -6.73799 -64.8725 -0.935994 -3.5753
internal_weight=0 494.632 5.27684 1.9777e-11 5.27684 0.431952 489.355 100.481
internal_count=27000 21101 1396 324 1072 690 19705 10529
cat_boundaries=0 1 17
cat_threshold=2 2621448 0 0 67766272 33558724 8192 11010048 3145728 16777732 2684354560 8388608 33554432 131072 67109120 538970112 1
shrinkage=0.1


Tree=29
num_leaves=9
num_cat=4
split_feature=0 1 9 8 0 9 0 9
split_gain=67380 2421.25 9.28849e+15 3.5894e+17 1471.29 5.28344e+17 2063.07 inf
threshold=0 1 1.5000000000000002 1.5000000000000002 2 1.5000000000000002 3 1.5000000000000002
decision_type=9 9 2 2 9 2 9 2
left_child=-1 4 3 -3 5 -2 7 -6
right_child=1 2 -4 -5 6 -7 -8 -9
leaf_value=8.235026613670227 -304872589518438.63 -5088408235890.6162 -0.63858550759067445 -1899999993107762 -1.7976931348623158e+307 -0.16330043729728777 0.52258061303212089 -0.023764578537534258
leaf_weight=0.058959277712490335 5.5843418857180521e-14 2.789656594694166e-12 4.6232854316363561 0 -1.0000000036274937e-15 122.14142563632626 80.510049958804075 273.19562861061456
leaf_count=132 4276 461 960 134 1019 14148 2064 3806
internal_value=0 -0.351126 -13.0288 -5.76925e+13 0.03768 -2.8209 1.07522 -0.289283
internal_weight=0 480.47 4.62329 2.78966e-12 475.847 122.141 353.706 273.196
internal_count=27000 26868 1555 595 25313 18424 6889 4825
cat_boundaries=0 2 3 4 7
cat_threshold=537395200 8 2 371373646 155453696 0 1
shrinkage=0.1


Tree=30
num_leaves=9
num_cat=2
split_feature=5 1 5 5 5 7 3 5
split_gain=1.30707e+18 2443.2 1.88915e+15 5.92761e+18 2379.04 5.29e+17 830.694 4461.32
threshold=1.5000000000000002 0 3.5000000000000004 2.5000000000000004 16.500000000000004 5.5000000000000009 1 2.5000000000000004
decision_type=2 9 2 2 2 2 9 2
left_child=-1 6 3 -3 5 -4 7 -2
right_child=1 2 4 -5 -6 -7 -8 -9
leaf_value=102234586602179.75 -8.654212211791819 -612754976843.98914 -1.8550514069865967 -7699999972068300 -0.18976517046017893 -2301839809544920 -0.050594578265260218 -0.57166383650192243
leaf_weight=1.2495552149341488e-12 0.70393439557602633 1.3381184249618159e-11 0.293698312907133 0 2.5916490392929861 -7.9928146485283916e-19 444.42038225640096 22.870889804656297
leaf_count=5902 874 171 579 149 389 101 15613 3222
internal_value=0 -1.30382 -14.9291 -1.18815e+13 -11.5641 -96.8622 -0.881968 -5.70858
internal_weight=0 470.881 2.88535 1.33812e-11 2.88535 0.293698 467.995 23.5748
internal_count=27000 21098 1389 320 1069 680 19709 4096
cat_boundaries=0 1 17
cat_threshold=2 0 0 0 131072 0 0 0 2097152 0 536870912 8388608 33554432 0 0 536870912 1
shrinkage=0.1


Tree=31
num_leaves=9
num_cat=3
split_feature=5 9 5 5 0 2 9 0
split_gain=4.55705e+17 17320.2 2.5e+16 1802.79 728.243 260.253 393.909 135.166
threshold=1.5000000000000002 1.5000000000000002 9.5000000000000018 2.5000000000000004 0 1 2.5000000000000004 2
decision_type=2 2 2 2 9 9 2 9
left_child=-1 2 3 -2 -3 7 -7 -6
right_child=1 4 -4 -5 5 6 -8 -9
leaf_value=-68671616273227.469 -5.2444502166441032 -0.87460150502832679 -562949953421312 -10.101403251868421 0.10543204775128119 -0.3639823394080644 -0.064974409831482338 -0.10635160155049822
leaf_weight=9.6533812063010876e-13 3.2479210495946509 1.5907173263009313 -1.1182158392736849e-16 0.9993603229522704 102.34963467211426 53.736334184672415 244.63884798251362 33.279635188531273
leaf_count=5883 207 116 107 248 476 3915 13497 2551
internal_value=0 -1.50003 -65.0499 -63.8726 -0.880386 -0.635398 -1.14971 0.497317
internal_weight=0 439.842 4.24728 4.24728 435.595 434.004 298.375 135.629
internal_count=27000 21117 562 455 20555 20439 17412 3027
cat_boundaries=0 1 3 4
cat_threshold=536871936 394240 2097152 3148544
shrinkage=0.1


Tree=32
num_leaves=9
num_cat=3
split_feature=1 5 5 5 5 3 5 2
split_gain=12677.2 8.93496e+16 9.92974e+07 9510.6 2.00024e+06 1016.39 995.226 228.615
threshold=0 1.5000000000000002 4.5000000000000009 16.500000000000004 12.500000000000002 1 2.5000000000000004 2
decision_type=9 2 2 2 2 9 2 9
left_child=1 -1 -2 4 -4 7 -7 -3
right_child=2 5 3 -5 -6 6 -8 -9
leaf_value=-20895607944351.656 -25481.282437815942 0.05180765804768564 -4.8434125365744869 -0.15859944282816152 -8040.0038827799381 -1.1633437237419026 -0.24732894228877292 -0.15224253931138987
leaf_weight=2.045363078985461e-12 0.0015305412235949714 269.51851637408174 0.084484843164651297 2.130743465595681 0.0003109489910622368 13.658461341485106 90.121762041304137 58.437415831597946
leaf_count=5661 672 3379 443 381 136 3095 11027 2206
internal_value=0 -1.74034 -34.5806 -14.6563 -343.086 -0.79023 -3.35552 0.120197
internal_weight=0 431.736 2.21707 2.21554 0.0847958 431.736 103.78 327.956
internal_count=27000 25368 1632 960 579 19707 14122 5585
cat_boundaries=0 1 17 19
cat_threshold=2 655360 0 0 167805472 4325376 0 1048576 794624 4195336 134217728 16704 4096 268763136 545800194 0 131200 926720 2097152
shrinkage=0.1


Tree=33
num_leaves=9
num_cat=3
split_feature=3 5 7 3 5 5 3 5
split_gain=12400.8 98945.3 42618.9 1683.47 488227 1561.32 10821.3 608.887
threshold=0 2.5000000000000004 1.5000000000000002 1 2.5000000000000004 2.5000000000000004 2 16.500000000000004
decision_type=9 2 2 9 2 2 9 2
left_child=1 2 -1 4 -2 6 -5 -3
right_child=3 7 -4 5 -6 -7 -8 -9
leaf_value=-25.061672453053344 267.50446658843623 -1.1467385444076912 -1.1699296502269234 -0.0015011387141375765 -0.22820881386422898 -0.02804476817868223 -2.9016376921773706 -0.21545782914064593
leaf_weight=2.5563614661990313 0.068585487284368862 11.199796654584643 1.0546651988529236 83.750475785567517 9.8516664682648916 281.2472451701729 5.5900031431398807 18.814572322122785
leaf_count=2757 114 4254 891 2272 176 10975 4223 1338
internal_value=0 -18.8417 -180.837 -0.951737 8.08157 -1.39954 -5.07914 -5.62963
internal_weight=0 33.6254 3.61103 380.508 9.92025 370.588 89.3405 30.0144
internal_count=27000 9240 3648 17760 290 17470 6495 5592
cat_boundaries=0 16 32 48
cat_threshold=2621440 0 0 133632 33554497 0 2097152 3145728 0 536870912 142606336 167772160 131072 256 32768 512 0 0 0 0 0 0 0 0 0 0 0 0 0 0 0 1 0 0 0 303071232 4329472 8192 135266304 274688 20972544 134217728 320 4096 302055428 540674 262144 131202
shrinkage=0.1


Tree=34
num_leaves=9
num_cat=1
split_feature=9 6 8 6 6 3 7 7
split_gain=6.94412e+07 4.57656e+18 4.41e+17 2.5e+16 3.37832e+07 1220.23 4662.63 1368.28
threshold=1.5000000000000002 1.5000000000000002 1.5000000000000002 4.5000000000000009 2.5000000000000004 0 1.5000000000000002 2.5000000000000004
decision_type=2 2 2 2 2 9 2 2
left_child=1 -1 3 4 -3 6 -2 -8
right_child=5 2 -4 -5 -6 -7 7 -9
leaf_value=-603529235846007.38 -12.842852770749907 -1102.1372535970929 -2101679826106231.8 -500399958596721.81 -50216.84359062268 -0.017159572673517285 -4.1452511372084881 -0.72876857132104722
leaf_weight=1.2464428663789667e-13 0.35397405214860711 0.014790795219755057 -7.9928146485283916e-19 -7.9928146485283916e-19 0.0001413871050317531 389.0276047450418 1.3469253558972401 9.0385357593516993
leaf_count=5873 182 175 154 103 114 19929 181 289
internal_value=0 -68196 -17413.1 -16006.7 -15671.9 -0.589431 -8.06019 -11.7186
internal_weight=0 0.0149322 0.0149322 0.0149322 0.0149322 399.767 10.7394 10.3855
internal_count=27000 6419 546 392 289 20581 652 470
cat_boundaries=0 16
cat_threshold=0 0 0 131072 0 0 2097152 1024 0 536870912 8388608 33554432 0 0 0 1
shrinkage=0.1


Tree=35
num_leaves=9
num_cat=1
split_feature=6 9 6 6 6 3 6 7
split_gain=4.76668e+18 1.18923e+18 9.08833e+18 4.1405e+18 4.5125e+18 1441 1939.83 635.529
threshold=1.5000000000000002 1.5000000000000002 2.5000000000000004 9.5000000000000018 3.5000000000000004 0 2.5000000000000004 1.5000000000000002
decision_type=2 2 2 2 2 9 2 2
left_child=-1 2 -2 4 -4 6 7 -3
right_child=1 5 3 -5 -6 -7 -8 -9
leaf_value=346113682305374.88 -283234195315097.31 -3.5717678700589297 -9499999965538810 -399999998549002.5 -0 -0.024712305794409032 -1.0646928904950517 -8.0999087877212066
leaf_weight=3.9690393202202861e-13 5.5843418857180521e-14 1.0593305919779532 0 0 0 359.35678049494953 11.212388713693755 0.43815300847200278
leaf_count=5847 204 103 100 102 133 19529 845 137
internal_value=0 -1.46205 -4.57397e+15 -9.9e+16 -9.5e+16 -0.763253 -8.48549 -48.9667
internal_weight=0 372.067 5.58434e-14 0 0 372.067 12.7099 1.49748
internal_count=27000 21153 539 335 233 20614 1085 240
cat_boundaries=0 16
cat_threshold=0 0 0 131584 0 0 2097152 1024 0 536870912 8404992 33554432 0 0 0 1
shrinkage=0.1


Tree=36
num_leaves=9
num_cat=2
split_feature=6 1 9 6 8 9 6 0
split_gain=1.39477e+18 2738.41 2.32246e+15 1.37143e+09 2.89e+17 1.20096e+16 1572.27 770.293
threshold=1.5000000000000002 0 1.5000000000000002 5.5000000000000009 1.5000000000000002 1.5000000000000002 16.500000000000004 1
decision_type=2 9 2 2 2 2 2 9
left_child=-1 2 -2 4 -3 -5 -7 -4
right_child=1 3 7 5 -6 6 -8 -9
leaf_value=142995146862318.94 -2609507596588.1104 -749563.96662753029 -0.57869107585786117 -300239975158033.38 -1699999453849932.3 -8.9366692234836016 -0.23841572032435079 -0.020858035654352989
leaf_weight=6.8112102632606868e-13 3.4096051316448534e-12 1.9611404249552411e-05 16.861768859888766 3.3226762592269412e-16 3.1763735522036263e-22 0.24162426047894903 1.4848508553281314 349.67610842576835
leaf_count=5876 133 322 2945 160 203 354 323 16684
internal_value=0 -1.39194 -0.848435 -16.4698 -8.36248e+06 -16.8744 -14.5576 -0.62877
internal_weight=0 368.264 366.538 1.72649 1.96114e-05 1.72648 1.72648 366.538
internal_count=27000 21124 19762 1362 525 837 677 19629
cat_boundaries=0 1 2
cat_threshold=2 536888328
shrinkage=0.1


Tree=37
num_leaves=9
num_cat=3
split_feature=0 3 5 5 7 5 2 5
split_gain=88351.7 6490.1 7.44783e+17 22390.3 153051 4224.78 2072.76 1.35954e+18
threshold=0 1 1.5000000000000002 2.5000000000000004 1.5000000000000002 16.500000000000004 2 1.5000000000000002
decision_type=9 9 2 2 2 2 9 2
left_child=-1 2 -2 4 -4 -5 7 -3
right_child=1 6 3 5 -6 -7 -8 -9
leaf_value=8.8701460713474862 -591097451092376.88 282354577065028.69 -20.186900929682384 -4.6516333590941752 -1063.3119467738368 -0.18762245335804476 -0.074835836712307466 0.054301064320210084
leaf_weight=1.6118098294050822 2.0316282069175512e-14 1.6953025657879655e-13 0.46791891164780802 2.6595888416487972 0.0014108194241301266 10.451403450369787 218.26005801004735 115.30637105289426
leaf_count=135 2468 977 745 4670 890 1301 11992 3822
internal_value=0 -0.0153746 -16.0635 -18.6139 -233.226 -10.9316 1.08652 4.34226
internal_weight=0 347.147 13.5803 13.5803 0.46933 13.111 333.566 115.306
internal_count=27000 26865 10074 7606 1635 5971 16791 4799
cat_boundaries=0 2 17 18
cat_threshold=537395200 8 524296 0 0 67242496 1 0 8912896 3146752 516 536870912 134217728 33554432 0 256 536870912 272384
shrinkage=0.1


Tree=38
num_leaves=9
num_cat=2
split_feature=0 9 3 9 6 6 9 6
split_gain=15079.6 inf 7707.55 1.38722e+19 2.94277e+19 1.78605e+19 3801.86 888.447
threshold=0 1.5000000000000002 1 1.5000000000000002 1.5000000000000002 6.5000000000000009 2.5000000000000004 16.500000000000004
decision_type=9 2 9 2 2 2 2 2
left_child=1 -1 3 4 -2 -6 -3 -5
right_child=2 6 -4 7 5 -7 -8 -9
leaf_value=1.7976931348623158e+307 -1752181730023832.5 -12.061072661129728 -0.0056463004985543176 -1.8008346122129986 -19199999930352124 -299999998911751.94 0.015517791579302912 -0.16758550501484526
leaf_weight=-1.0000000036274937e-15 1.3210854711574508e-14 0.26178453801370594 276.11798710947477 3.9766933111615499 0 0 61.778078415414541 20.500976165074462
leaf_count=161 3276 100 12236 8678 282 105 345 1817
internal_value=0 14.252 -1.82271 -15.9515 -3.12437e+16 -1.95e+17 -0.354408 -4.32927
internal_weight=0 62.0399 300.596 24.4777 1.32109e-14 0 62.0399 24.4777
internal_count=27000 606 26394 14158 3663 387 445 10495
cat_boundaries=0 2 18
cat_threshold=537919488 8 2621448 0 0 201460256 33554497 0 10485760 3146752 520 536870912 671088640 167776256 131072 256 536903680 512
shrinkage=0.1


Tree=39
num_leaves=9
num_cat=3
split_feature=6 3 6 6 8 3 6 1
split_gain=1.83241e+16 4211.18 1.36283e+06 3248.49 6.93941e+06 855.162 695.759 546.246
threshold=1.5000000000000002 0 2.5000000000000004 3.5000000000000004 1.5000000000000002 1 16.500000000000004 2
decision_type=2 9 2 2 2 9 2 9
left_child=-1 2 -2 4 -4 -3 -5 -7
right_child=1 5 3 6 -6 7 -8 -9
leaf_value=-32780112031471.102 -906.63448102832865 0.53899101721023879 -6.1045673948490862 -2.3111833034934004 -99147.172134673689 -0.015488943485128474 -0.37227374471003755 -0.74096876209685802
leaf_weight=1.6953025657879655e-13 0.016656871885062041 17.692920404741308 1.0169176011475487 2.46757079112776 7.0602185705529228e-06 330.39587936199848 7.4035929831056118 0.76599638216919075
leaf_count=5926 1574 105 728 3400 371 12975 1263 658
internal_value=0 -0.800315 -14.575 -14.1136 -67.9288 0.0467207 -8.56958 -0.388368
internal_weight=0 359.76 10.9047 10.8881 1.01692 348.855 9.87116 331.162
internal_count=27000 21074 7336 5762 1099 13738 4663 13633
cat_boundaries=0 16 27 28
cat_threshold=8 0 0 67242496 1 0 8388608 2098176 512 536870912 142606336 33554432 0 0 536870912 1 0 0 0 0 0 0 2097152 0 0 0 16384 2
shrinkage=0.1


Tree=40
num_leaves=9
num_cat=1
split_feature=9 5 5 5 0 8 5 7
split_gain=1.55374e+17 3.02347e+19 5.90648e+19 2.2445e+18 414.062 210.929 inf inf
threshold=1.5000000000000002 1.5000000000000002 5.5000000000000009 2.5000000000000004 0 1.5000000000000002 2.5000000000000004 1.5000000000000002
decision_type=2 2 2 2 9 2 2 2
left_child=1 -1 3 -3 -2 -6 7 -7
right_child=4 2 -4 -5 5 6 -8 -9
leaf_value=-16390056015735.26 -0.56685216204961575 -16299999940871854 8469999664099349 -9599999965176062 0.038197700912549093 1.7976931348623158e+307 -0.16305936721127642 -0
leaf_weight=3.400605131612206e-13 3.2206875848882217 0 0 0 298.81993574831102 -1.0000000036274937e-15 63.065977941979042 0
leaf_count=5933 112 202 167 177 10542 172 9156 539
internal_value=0 -6.74954e+14 -1.743e+17 -2.59e+17 -0.17429 0.0304055 -1.63059 1.79769e+308
internal_weight=0 3.40061e-13 0 0 365.107 361.886 63.066 -1e-15
internal_count=27000 6479 546 379 20521 20409 9867 711
cat_boundaries=0 1
cat_threshold=536871936
shrinkage=0.1


Tree=41
num_leaves=9
num_cat=2
split_feature=6 1 6 8 8 6 6 0
split_gain=4.15052e+17 6251.93 1.7387e+16 5.2474e+17 5e+14 1.01879e+11 2.116e+18 1046.45
threshold=1.5000000000000002 0 7.5000000000000009 1.5000000000000002 2.5000000000000004 16.500000000000004 12.500000000000002 1
decision_type=2 9 2 2 2 2 2 9
left_child=-1 7 3 -3 -5 6 -4 -2
right_child=1 2 5 4 -6 -7 -8 -9
leaf_value=-270215988379647.13 0.055578675982207816 -8629651980590.2725 -54993306.178637601 -1099999996009757 -1199999995647007.8 -0.44355061440770255 -4599999983313529 -0.43426544321734301
leaf_weight=5.5843418857180521e-14 310.75430516404572 1.7603688285641834e-12 7.0917721139185454e-08 0 0 0.59814253984667798 0 40.488797557696785
leaf_count=5890 5616 365 191 150 118 375 133 14162
internal_value=0 -0.862996 -24.7829 -9.93545e+13 -2.3e+16 -146.542 -1.19857e+09 -0.113454
internal_weight=0 351.841 0.598143 1.76037e-12 0 0.598143 7.09177e-08 351.243
internal_count=27000 21110 1332 633 268 699 324 19778
cat_boundaries=0 1 4
cat_threshold=3 157027104 0 262145
shrinkage=0.1


Tree=42
num_leaves=9
num_cat=3
split_feature=2 9 3 9 9 8 3 9
split_gain=8737.62 inf 5419.25 6.8135e+19 17103.6 2.38159e+06 1998.14 3.10358e+17
threshold=0 1.5000000000000002 1 1.5000000000000002 2.5000000000000004 1.5000000000000002 2 1.5000000000000002
decision_type=9 2 9 2 2 2 9 2
left_child=1 -1 3 -2 5 -5 7 -4
right_child=2 -3 6 4 -6 -7 -8 -9
leaf_value=1.7976931348623158e+307 -27697137708328524 -0.1290792173156835 -104497585103831.11 -79866.613397266236 -0.50668045253584837 -137.74389340794133 0.10318890535518768 -0.13244466538159183
leaf_weight=-1.0000000036274937e-15 -1.1182158392736849e-16 5.5031217102485082 2.8321709430041258e-13 3.7562676415920584e-06 1.4737388834332203 0.0014530250047347687 255.01035341952127 84.431586790001532
leaf_count=251 1289 676 3218 574 2648 254 8013 10077
internal_value=0 23.1371 -1.12229 -22.5241 -8.45217 -3433.22 -0.387372 -4.32933
internal_weight=0 5.50312 340.917 1.4752 1.4752 0.00145678 339.442 84.4316
internal_count=27000 927 26073 4765 3476 828 21308 13295
cat_boundaries=0 1 15 31
cat_threshold=16779328 524288 0 0 2048 0 0 2097152 3145728 0 0 134217728 0 0 256 8 0 0 604111392 33559237 262144 143138816 9216 520 536870912 8388608 33558528 0 67108864 1612711936 2
shrinkage=0.1


Tree=43
num_leaves=9
num_cat=2
split_feature=9 6 6 6 3 2 7 6
split_gain=16029.9 2.86964e+19 1.2996e+19 43091 393.713 190.903 193.021 502.851
threshold=1.5000000000000002 8.5000000000000018 2.5000000000000004 1.5000000000000002 0 1 2.5000000000000004 16.500000000000004
decision_type=2 2 2 2 9 9 2 2
left_child=1 2 3 -1 -2 6 -6 -8
right_child=4 -3 -4 -5 5 -7 7 -9
leaf_value=-3.4128572736465972 -0.32162409668457848 19072743734719276 -12835258938005914 -33.79999999999994 0.085678891178357308 -0.13602149731461563 -2.8666218034868107 -0.12786851489040127
leaf_weight=7.0000000000003402 29.581956809213541 -1.1182158392736849e-16 -1.1182158392736849e-16 0.49999999999999994 219.90704502571873 58.013440886958165 0.68793171073534043 26.305333595067257
leaf_count=5907 9539 117 224 214 3020 4826 2174 979
internal_value=0 -47 -69.5867 -54.3867 -0.253399 0.135099 0.525719 -1.97666
internal_weight=0 7.5 7.5 7.5 334.496 304.914 246.9 26.9933
internal_count=27000 6462 6345 6121 20538 10999 6173 3153
cat_boundaries=0 16 18
cat_threshold=0 0 0 605159936 33558592 8192 144703488 2098432 16777216 2684354560 545259552 33554432 33554432 67108864 1610876928 131 925696 2097152
shrinkage=0.1


Tree=44
num_leaves=9
num_cat=0
split_feature=9 6 6 6 7 6 7 9
split_gain=422354 2.3104e+19 5.24896e+18 2.89378e+18 273.763 1222.9 5.54729e+08 7964.65
threshold=1.5000000000000002 2.5000000000000004 1.5000000000000002 10.500000000000002 2.5000000000000004 16.500000000000004 13.500000000000002 14.500000000000002
decision_type=2 2 2 2 2 2 2 2
left_child=1 2 -1 -3 -2 6 7 -6
right_child=4 3 -4 -5 5 -7 -8 -9
leaf_value=-33.490969686912329 -0.027501847850288877 -11409119056005256 -3162101866026093 -3799999986215524 -1.4733597104138967 -0.15269318591853473 -3962352.3000782938 -91.600001202892415
leaf_weight=0.9572394788270292 237.9111289765541 -7.9928146485283916e-19 4.218048212110742e-15 0 3.1255741131667221 40.509342828839685 3.5332548076114642e-07 0.0098361479999770074
leaf_count=5871 11588 251 210 101 6016 2701 124 138
internal_value=0 -666.07 -507.28 -1.52122e+17 -0.69736 -2.99958 -22.0261 -17.561
internal_weight=0 0.957239 0.957239 -7.99281e-19 281.556 43.6448 3.13541 3.13541
internal_count=27000 6433 6081 352 20567 8979 6278 6154
shrinkage=0.1


Tree=45
num_leaves=9
num_cat=2
split_feature=1 9 5 5 8 8 2 9
split_gain=5964.12 2.87383e+07 4.84387e+17 2.41903e+17 9.45311e+13 80155.3 2557.46 7.5546e+17
threshold=0 2.5000000000000004 16.500000000000004 11.500000000000002 1.5000000000000002 2.5000000000000004 1 1.5000000000000002
decision_type=9 2 2 2 2 2 9 2
left_child=6 4 3 -3 -2 -6 -1 -8
right_child=1 2 -4 -5 5 -7 7 -9
leaf_value=-0.39253279031086502 -48979885868.863922 -0 -0.10649673291780147 -2199999992019514 -3162.3139542646991 -1825.0991575442984 297659773554961.63 0.036855902752873572
leaf_weight=133.22187480751469 3.9403830118808354e-10 -7.9928146485283916e-19 0.30179636772365354 0 0.00069571510539390158 0.001260274563974817 8.4265128287584529e-14 184.14499476064293
leaf_count=15334 601 244 270 103 161 151 2330 7806
internal_value=0 -25.2649 -73.9618 -2.20176e+16 -121679 -23007.3 -0.734725 1.65685
internal_weight=0 0.303752 0.301796 -7.99281e-19 0.00195599 0.00195599 317.367 184.145
internal_count=27000 1530 617 347 913 312 25470 10136
cat_boundaries=0 1 3
cat_threshold=3 1331289935 617
shrinkage=0.1


Tree=46
num_leaves=9
num_cat=2
split_feature=0 9 8 7 8 8 3 9
split_gain=9230.97 143109 1.72834e+11 1.11876e+08 8.6885e+10 1.68224e+10 7334.24 inf
threshold=0 2.5000000000000004 2.5000000000000004 1.5000000000000002 1.5000000000000002 1.5000000000000002 1 1.5000000000000002
decision_type=9 2 2 2 2 2 9 2
left_child=1 2 3 4 -1 -5 -2 -8
right_child=6 -3 -4 5 -6 -7 7 -9
leaf_value=-35.657264334636565 2.6154963447180646 -0.71799677517093696 -864168037.27221918 -89122712.186464608 -868850238.18603384 -51020.449441737364 -1.7976931348623158e+307 0.02915182902390492
leaf_weight=0.95672715374326533 0.28106977887349965 11.372376356674133 2.3143636998846598e-09 2.1318919346102881e-08 1.150945338235311e-09 3.9200045107209083e-06 -1.0000000036274937e-15 315.71054688933486
leaf_count=4032 153 8800 137 1090 181 398 2986 9223
internal_value=0 -21.2188 -409.878 -388.973 -367.025 -5.32816e+06 -0.147438 -0.973148
internal_weight=0 12.3291 0.956731 0.956731 0.956727 3.94132e-06 315.992 315.711
internal_count=27000 14638 5838 5701 4213 1488 12362 12209
cat_boundaries=0 1 17
cat_threshold=539005964 0 0 0 0 0 0 2097152 0 0 0 0 0 0 0 0 1
shrinkage=0.1


Tree=47
num_leaves=9
num_cat=4
split_feature=0 9 6 6 3 6 2 0
split_gain=13926.5 1.17302e+18 2.39092e+19 6.1605e+18 10278 881.441 919.348 842.65
threshold=0 1.5000000000000002 1.5000000000000002 3.5000000000000004 1 1.5000000000000002 2 3
decision_type=9 2 2 2 9 2 9 9
left_child=1 2 -1 -4 -2 6 7 -6
right_child=4 -3 3 -5 5 -7 -8 -9
leaf_value=-179086092564900.13 3.1142198579049545 -1.0152703748308223 -13399999951391584 -2299999991656764.5 0.092486253340831312 0.01968705427222333 0.14896551589875104 0.99914100770705405
leaf_weight=1.3133858453169119e-13 1.7617954735950667 7.806574840122801 0 0 30.924999237060547 367.55422577563252 279.99999237060513 24.924999237060547
leaf_count=3145 197 11229 146 102 151 9489 2070 471
internal_value=0 -26.5777 -2.97721e+15 -1.57e+17 1.75826 1.24917 2.43799 5.87396
internal_weight=0 7.80657 1.31339e-13 0 705.166 703.404 335.85 55.85
internal_count=27000 14622 3393 248 12378 12181 2692 622
cat_boundaries=0 1 9 10 11
cat_threshold=539005964 0 0 0 32 0 0 2097152 1048576 8396800 1310720
shrinkage=0.1


Tree=48
num_leaves=9
num_cat=2
split_feature=0 9 5 5 0 5 9 5
split_gain=14886.7 1.00525e+18 2.46493e+19 6.1605e+18 1744.11 10127.3 830.751 11139.9
threshold=0 1.5000000000000002 1.5000000000000002 3.5000000000000004 1 1.5000000000000002 1.5000000000000002 5.5000000000000009
decision_type=9 2 2 2 9 2 2 2
left_child=1 2 -1 -4 5 -2 7 -6
right_child=4 -3 3 -5 6 -7 -8 -9
leaf_value=-151156727824728.06 8.6954141593888572 -1.1186652837682212 -13499999951028836 -2399999991294015.5 0.18995946724152676 -0.24819210037240033 0.014728366894464776 6.3119762225948541
leaf_weight=1.5976029396209517e-13 2.2375638037920016 6.2534262829983209 0 0 325.34932731837046 2.9162327850142589 295.28150130467702 2.9997092485427848
leaf_count=3141 270 11268 148 105 2665 948 8353 102
internal_value=0 -29.0373 -2.50062e+15 -1.59e+17 1.62526 12.3618 1.34284 2.45889
internal_weight=0 6.25343 1.5976e-13 0 628.784 5.1538 623.631 328.349
internal_count=27000 14662 3394 253 12338 1218 11120 2767
cat_boundaries=0 1 2
cat_threshold=539005964 16416
shrinkage=0.1


Tree=49
num_leaves=9
num_cat=2
split_feature=0 5 5 7 5 7 3 5
split_gain=16947.3 2.76892e+17 7.4391e+15 2.5336e+17 38024.2 82583.6 18514.8 332083
threshold=0 1.5000000000000002 2.5000000000000004 1.5000000000000002 4.5000000000000009 1.5000000000000002 1 1.5000000000000002
decision_type=9 2 2 2 2 2 9 2
left_child=1 -1 3 -3 5 -4 7 -2
right_child=6 2 4 -5 -6 -7 -8 -9
leaf_value=-118837906362098.13 202.82253675341471 -7369938967247.8848 -77.935834206627192 -1599999994196010 -5.1722360033022143 -2223.3282983573404 0.080748310604063261 30.152201923806111
leaf_weight=1.9506538614517518e-13 0.13669176399707772 8.8096117075859686e-13 0.065348259572084913 0 0.99087696348206411 0.00017991781573022036 667.43576665740716 0.60151553641205247
leaf_count=3117 103 910 1051 1400 6203 1844 12183 189
internal_value=0 -38.0033 -177.186 -9.18408e+13 -100.511 -838.263 1.48285 42.7084
internal_weight=0 1.05641 1.05641 8.80961e-13 1.05641 0.0655282 668.174 0.738207
internal_count=27000 14525 11408 2310 9098 2895 12475 292
cat_boundaries=0 1 17
cat_threshold=539004940 0 0 0 32 0 0 2097152 1048576 0 0 0 0 0 0 0 1
shrinkage=0.1


Tree=50
num_leaves=9
num_cat=1
split_feature=0 9 6 7 8 8 9 7
split_gain=13064.9 inf inf inf inf 4.05e+16 90136.3 149770
threshold=0 2.5000000000000004 8.5000000000000018 1.5000000000000002 1.5000000000000002 1.5000000000000002 44.500000000000007 18.500000000000004
decision_type=9 2 2 2 2 2 2 2
left_child=1 2 3 4 -1 -5 -3 -8
right_child=-2 6 -4 5 -6 -7 7 -9
leaf_value=-1.7976931348623158e+307 0.11312415335320428 -0.7714100940882247 -2499999990931265.5 -1199999995647007.8 -1299999995284258.3 -299999998911751.94 -800.52021076078336 -6933.145749582809
leaf_weight=-1.0000000036274937e-15 643.20888265023507 6.6062497215202916 0 0 0 0 0.00049973567024175149 4.3270849661380903e-05
leaf_count=4024 12346 8203 105 1051 209 412 448 202
internal_value=0 -27.2757 -1.79769e+308 -1.79769e+308 -1.79769e+308 -1.5e+16 -8.77306 -12892.1
internal_weight=0 6.60679 -1e-15 -1e-15 -1e-15 0 6.60679 0.000543007
internal_count=27000 14654 5801 5696 4233 1463 8853 650
cat_boundaries=0 1
cat_threshold=539005964
shrinkage=0.1


Tree=51
num_leaves=9
num_cat=6
split_feature=3 9 3 3 2 6 2 2
split_gain=23652.4 201867 1202.6 793.545 1708.81 2218.29 344.657 228.116
threshold=0 1.5000000000000002 1 2 3 1.5000000000000002 4 5
decision_type=9 2 9 9 9 2 9 9
left_child=1 -1 -2 6 5 -5 -4 -6
right_child=2 -3 3 4 7 -7 -8 -9
leaf_value=33.5700513385504 -0.1960404085599857 -0.65766153408276318 0.043438062763022298 1.8670330136823396 0.15186832637698142 -0.63178332082671906 -0.21295373952876681 -0.19498199812031078
leaf_weight=2.2400932163000187 143.61571653820261 7.4660166168939925 169.05642068242526 16.983793258666985 390.66665913606641 4.4923197085539384 64.821728418823795 13.320753975127614
leaf_count=133 16879 141 3316 131 1218 443 3866 873
internal_value=0 35.6691 0.57693 1.15064 1.95591 9.17239 -0.334417 1.35998
internal_weight=0 9.70611 802.957 659.342 425.464 21.4761 233.878 403.987
internal_count=27000 274 26726 9847 2665 574 7182 2091
cat_boundaries=0 8 24 37 38 40 42
cat_threshold=0 0 0 131104 0 0 2097152 1048576 8 0 0 738200064 33689665 0 8396800 2098432 16777732 2684354560 536870912 33558528 0 67108864 1612711952 514 524288 0 0 303579136 644 270336 135790592 532480 1032 0 288 150994944 33751044 8192 532480 2097152 55462976 64
shrinkage=0.1


Tree=52
num_leaves=9
num_cat=3
split_feature=2 5 5 5 8 5 0 0
split_gain=10984.6 287718 9311.42 225636 1429.13 1377.16 1772.78 1215.75
threshold=0 1.5000000000000002 8.5000000000000018 15.500000000000002 1.5000000000000002 1.5000000000000002 1 2
decision_type=9 2 2 2 2 2 9 9
left_child=1 -1 4 -4 -3 6 -2 -7
right_child=5 2 3 -5 -6 7 -8 -9
leaf_value=80.023009095667007 1.3610120229614886 -0.22295625025837557 241.32981591591735 -0.3385486451342099 -143.27285160985892 0.033292784907285301 0.16342024428807925 -0.4152952567477779
leaf_weight=0.48942828178499448 3.3835806631832384 6.9566331515165354 0.04046672665523543 0.85299983109888833 0.00069845645756483256 305.19599236068291 395.62531884014447 65.194462011784935
leaf_count=261 799 423 109 160 201 4234 4863 15950
internal_value=0 25.6221 9.96835 106.071 -2.37317 0.818174 2.11781 -0.559792
internal_weight=0 8.34023 7.8508 0.893467 6.95733 769.399 399.009 370.39
internal_count=27000 1154 893 269 624 25846 5662 20184
cat_boundaries=0 2 3 8
cat_threshold=277872641 256 16896 417073440 0 262144 0 8388608
shrinkage=0.1


Tree=53
num_leaves=9
num_cat=3
split_feature=3 9 3 5 9 5 5 2
split_gain=38691.5 850364 1428.67 1506.22 130405 10773.5 712.35 610.685
threshold=0 1.5000000000000002 1 8.5000000000000018 2.5000000000000004 16.500000000000004 1.5000000000000002 2
decision_type=9 2 9 2 2 2 2 9
left_child=1 -1 3 -2 -5 -6 7 -4
right_child=2 -3 6 4 5 -7 -8 -9
leaf_value=112.8474747721112 -0.24216102070081044 -0.79557282073596758 0.54097383520234976 -872.69367151071083 -12.70174380074344 -0.2403911825532512 -0.044377148254792144 0.11297177351024673
leaf_weight=0.74954013526441698 86.365242766397728 5.4176935860850861 30.398194178938866 0.0017186189070298443 0.77296890217809533 6.7727825293442132 285.61468781625234 337.71313287370748
leaf_count=173 12349 275 460 124 1851 2382 7770 1616
internal_value=0 49.652 0.192718 -3.25853 -17.1528 -15.169 0.730141 1.66081
internal_weight=0 6.16723 747.639 93.9127 7.54747 7.54575 653.726 368.111
internal_count=27000 448 26552 16706 4357 4233 9846 2076
cat_boundaries=0 8 24 25
cat_threshold=524288 0 0 131104 0 0 2097152 1048576 8 0 0 67111424 33558725 0 142614528 2106624 512 536870912 16384 33558528 0 75497472 1612711952 514 8192
shrinkage=0.1


Tree=54
num_leaves=9
num_cat=1
split_feature=0 5 8 5 7 8 5 5
split_gain=7281.66 87122.9 1618.79 11730.6 1.21e+17 3.71604e+13 1374.79 30151.9
threshold=0 1.5000000000000002 1.5000000000000002 16.500000000000004 13.500000000000002 11.500000000000002 8.5000000000000018 12.500000000000002
decision_type=9 2 2 2 2 2 2 2
left_child=1 -1 -2 4 5 -4 -3 -8
right_child=2 6 3 -5 -6 -7 7 -9
leaf_value=20.537694861487466 0.10330531016270819 -0.28126929517942162 -7.9768888491474801 -0.17103410131318775 -990791918021509.25 -464528068836.66467 33.255853366562349 -1.1559463829036223
leaf_weight=2.3598929792642442 636.98277938983983 15.074831515804959 1.5200588363949135 24.26025366375961 1.1022302099766281e-16 1.7211779557949151e-12 0.28088599282806948 2.7233948092706228
leaf_count=591 15349 1139 6098 3064 110 125 118 406
internal_value=0 16.5642 0.707961 -7.04983 -92.2684 -85.0318 1.08021 20.6139
internal_weight=0 20.439 662.763 25.7803 1.52006 1.52006 18.0791 3.00428
internal_count=27000 2254 24746 9397 6333 6223 1663 524
cat_boundaries=0 1
cat_threshold=1568
shrinkage=0.1


Tree=55
num_leaves=9
num_cat=3
split_feature=2 5 5 2 9 5 2 5
split_gain=8623.83 1.18779e+20 12285.7 1559.62 818.535 10870.5 1227.54 735.649
threshold=0 1.5000000000000002 8.5000000000000018 1 1.5000000000000002 3.5000000000000004 2 8.5000000000000018
decision_type=9 2 2 9 2 2 9 2
left_child=1 -1 -3 7 5 6 -5 -2
right_child=3 2 -4 4 -6 -7 -8 -9
leaf_value=29858864613206704 -0.28286046396335301 -0.33107638362749714 -24.957134303776542 0.72431972757427809 -0.026820204652620111 13.256570234253125 0.11241177551563769 -1.2081168014429893
leaf_weight=3.3226762592269412e-16 58.624802105356224 2.0090464587662002 0.2253063124962108 28.323655724525452 257.62107929121402 0.6371508517768224 334.26094608683064 10.068900090343972
leaf_count=126 6696 252 119 1361 13502 107 2730 2107
internal_value=0 27.3753 -28.143 0.56105 1.07784 2.06221 1.83288 -3.65303
internal_weight=0 2.23435 2.23435 689.537 620.843 363.222 362.585 68.6937
internal_count=27000 497 371 26503 17700 4198 4091 8803
cat_boundaries=0 2 21 22
cat_threshold=276824064 256 3476345631 67240489 514 0 0 0 0 0 0 0 0 0 0 0 0 0 0 0 2147483648 8192
shrinkage=0.1


Tree=56
num_leaves=9
num_cat=4
split_feature=2 5 0 5 9 9 0 2
split_gain=10251.3 130800 1849.42 2436.41 4.96522e+17 1107.19 2213.24 757.567
threshold=0 2.5000000000000004 1 8.5000000000000018 2.5000000000000004 1.5000000000000002 2 3
decision_type=9 2 9 2 2 2 9 9
left_child=1 -1 3 -2 -5 6 -4 -8
right_child=2 -3 5 4 -6 -7 7 -9
leaf_value=72.860332077101575 -0.27460407063447129 5.7972495273055005 1.6477800646947784 -2364389804369507.5 -2.0582928761127159 -0.031553722455432108 0.73965512663905797 0.13386574306880522
leaf_weight=0.39869574706650407 65.553269946487518 1.0749762067280033 1.1290628525467319 -1.1182158392736849e-16 5.7309075528212352 273.18112068572663 14.051101613008715 319.34918438966628
leaf_count=127 12407 193 295 123 4138 7723 394 1600
internal_value=0 30.7495 0.576193 -3.92414 -24.2473 1.15906 2.39789 1.80192
internal_weight=0 1.47367 678.995 71.2842 5.73091 607.71 334.529 333.4
internal_count=27000 320 26680 16668 4261 10012 2289 1994
cat_boundaries=0 2 5 6 7
cat_threshold=268435457 256 18920006 0 1 17408 8192
shrinkage=0.1


Tree=57
num_leaves=9
num_cat=3
split_feature=2 9 5 5 2 0 5 9
split_gain=13728.5 3.76401e+07 9579.93 1528.47 6662.78 1526.11 3801.97 195145
threshold=0 1.5000000000000002 8.5000000000000018 1.5000000000000002 1 2 8.5000000000000018 3.5000000000000004
decision_type=9 2 2 2 9 9 2 2
left_child=1 -1 -3 4 -2 -5 -7 -8
right_child=3 2 -4 5 -6 6 7 -9
leaf_value=7804.5200529135273 2.1391869383448689 -1.3155632691642949 -24.720909589045849 0.022986729654519731 0.11131549664231639 -0.35254027934537979 -981.76901809546007 -2.8734349349423041
leaf_weight=0.0061952075914063478 7.3716405257582664 1.5497407891006565 0.19712039898364572 274.78684313817308 300.18239252752363 44.490181606908934 0.00203734697856539 4.9356618721889891
leaf_count=149 1445 261 121 5063 4298 10623 212 4828
internal_value=0 35.2579 -39.5668 0.722511 2.33095 -0.780988 -5.36231 -32.7734
internal_weight=0 1.75306 1.74686 631.769 307.554 324.215 49.4279 4.9377
internal_count=27000 531 382 26469 5743 20726 15663 5040
cat_boundaries=0 2 3 8
cat_threshold=276824065 256 1056768 182331680 16 1 0 8388608
shrinkage=0.1


Tree=58
num_leaves=9
num_cat=2
split_feature=2 8 5 8 5 7 8 2
split_gain=14187.9 1.36898e+18 3.1948e+17 1452.81 5487.91 1.21e+17 1.6e+16 1109.01
threshold=0 1.5000000000000002 1.5000000000000002 1.5000000000000002 16.500000000000004 13.500000000000002 11.500000000000002 1
decision_type=9 2 2 2 2 2 2 9
left_child=1 2 -1 7 5 6 -5 -2
right_child=3 -3 -4 4 -6 -7 -8 -9
leaf_value=81333971432439.219 -0.10893375855209503 -3332663724254167.5 4.1426664285411254 -5.1994851264852793 -0.22810386791084625 -990791918021509.25 -360287970189639.75 0.18807582427405145
leaf_weight=4.819470157083156e-13 172.62559657303876 1.1022302099766281e-16 1.4484655681278051 1.8107645746023151 16.479890210277194 1.1022302099766281e-16 1.1022302099766281e-16 418.23535564923219
leaf_count=128 6406 182 206 6378 3256 122 127 10195
internal_value=0 36.3197 312.61 0.742507 -8.02277 -60.2786 -54.2039 1.02641
internal_weight=0 1.44847 1.44847 609.152 18.2907 1.81076 1.81076 590.861
internal_count=27000 516 334 26484 9883 6627 6505 16601
cat_boundaries=0 2 21
cat_threshold=276824065 256 1778834270 131645 0 0 0 0 0 0 0 0 0 0 0 0 0 0 0 0 2147483648
shrinkage=0.1


Tree=59
num_leaves=9
num_cat=2
split_feature=2 6 9 6 8 6 6 0
split_gain=15178.2 4.21783e+17 58790.9 1.2301e+12 6.81555e+10 1.11282e+15 6395.27 1168.57
threshold=0 1.5000000000000002 8.5000000000000018 16.500000000000004 1.5000000000000002 4.5000000000000009 4.5000000000000009 1
decision_type=9 2 2 2 2 2 2 9
left_child=1 -1 4 -4 6 -6 -3 -2
right_child=7 2 3 -5 5 -7 -8 -9
leaf_value=86342556877983.297 -0.12182595455295808 -1.0384260963005847 -1984026048.2066095 -2.9324518895221434 -111285859518035.13 -1514567303.7231245 7.9201102632812255 0.16837366463694972
leaf_weight=5.6476965334535228e-13 212.40089796861284 2.9399883080581053 3.1249579721449275e-09 0.070628293126187444 -1.0141324307150765e-16 1.3204991614057526e-10 1.0931585044931895 365.36415265831067
leaf_count=266 16040 331 105 137 113 123 114 9771
internal_value=0 33.8547 -2.68567 -907.16 13.1534 -2.27185e+10 13.8973 0.614314
internal_weight=0 4.10378 4.10378 0.0706283 4.03315 1.3205e-10 4.03315 577.765
internal_count=27000 1189 923 242 681 236 445 25811
cat_boundaries=0 2 4
cat_threshold=277872641 256 330478918 16
shrinkage=0.1


Tree=60
num_leaves=9
num_cat=5
split_feature=0 0 0 5 9 0 0 8
split_gain=9367.71 1637.2 1862.63 1997.58 859.164 1147.51 393.623 325.732
threshold=0 1 2 1.5000000000000002 1.5000000000000002 3 4 1.5000000000000002
decision_type=9 9 9 2 2 9 9 2
left_child=-1 7 4 -4 5 -3 -6 -2
right_child=1 2 3 -5 6 -7 -8 -9
leaf_value=2.7011377599012523 -0.12888412456025228 1.163779681205706 1.9635193469751684 -0.40041892824879688 -0.50664620761423151 0.17221674113904706 -0.00341373804896839 -0.8008590292430503
leaf_weight=3.9208412978372849 202.6249706532291 3.7386361873686091 15.870229989289845 4.6138622944405894 8.4213179502124618 198.61479272437282 111.26882094056479 7.4799372492260821
leaf_count=139 10958 892 301 790 2399 823 3115 7583
internal_value=0 0.699873 2.02772 9.61617 1.26997 2.5656 -0.814359 -1.45865
internal_weight=0 552.633 342.528 20.4841 322.044 202.353 119.69 210.105
internal_count=27000 26861 8320 1091 7229 1715 5514 18541
cat_boundaries=0 1 2 4 5 6
cat_threshold=1056 330739782 537414408 8 16896 16896
shrinkage=0.1


Tree=61
num_leaves=9
num_cat=3
split_feature=3 9 3 2 5 8 9 5
split_gain=39586.6 4.26275e+20 1038.3 1095 2.82983e+06 882.037 76602.4 3257.48
threshold=0 1.5000000000000002 1 2 1.5000000000000002 1.5000000000000002 1.5000000000000002 16.500000000000004
decision_type=9 2 9 9 2 2 2 2
left_child=1 -1 5 4 -4 -2 -7 -8
right_child=2 -3 3 -5 -6 6 7 -9
leaf_value=56565209487254048 -0.13223008326586752 -1.1716426093772268 956.25249957859421 0.045578808684495944 -0.053509563958885981 -297.25478091902897 -12.794706781020253 -0.24560261116802959
leaf_weight=3.3226762592269412e-16 224.76304777167962 2.7871584564648897 0.030967863625838695 291.94797859213406 38.942320274065089 0.0087477732398951735 0.21985640167740997 3.4966536820488754
leaf_count=155 11180 264 380 6209 1435 124 4840 2413
internal_value=0 56.3803 0.0930648 1.21118 5.62129 -1.5092 -16.8367 -9.87966
internal_weight=0 2.78716 559.41 330.921 38.9733 228.488 3.72526 3.71651
internal_count=27000 419 26581 8024 1815 18557 7377 7253
cat_boundaries=0 8 24 25
cat_threshold=524288 0 0 131072 0 0 2097152 1048576 8 0 0 234883616 33558593 0 8396800 2098432 524 2684354560 536887296 33558528 131072 67108864 1610614800 512 8192
shrinkage=0.1


Tree=62
num_leaves=9
num_cat=4
split_feature=3 7 2 3 8 7 8 3
split_gain=35404.9 883214 1032.42 554.769 2.24998e+08 1.92618e+08 2385.64 506.201
threshold=0 1.5000000000000002 1 2 11.500000000000002 6.5000000000000009 2.5000000000000004 3
decision_type=9 2 9 9 2 2 2 9
left_child=1 -1 3 4 6 -6 -2 -5
right_child=2 -3 -4 7 5 -7 -8 -9
leaf_value=169.3171597851273 -0.45809126165121061 -2.940569876578679 -0.21688815332651684 0.065858041473317225 -20880835.474701852 -0.099999986873629196 -22.555016171723206 0.39103822775269947
leaf_weight=0.40201844064693526 18.51624609855045 1.1465477033361113 143.40780870561844 303.24838500304429 9.5781598547285088e-09 8.1997356335405946e-09 0.048987908300037193 50.455920337951056
leaf_count=201 6518 170 12215 3393 135 239 1605 2524
internal_value=0 56.0218 0.0230391 0.902072 -3.42621 -1.12499e+08 -5.16398 1.21721
internal_weight=0 1.54857 515.677 372.27 18.5652 1.77779e-08 18.5652 353.704
internal_count=27000 371 26629 14414 8497 374 8123 5917
cat_boundaries=0 8 10 26 42
cat_threshold=524288 0 0 131104 0 0 0 1048576 664576 2097216 8 0 0 603980288 33558593 0 11018240 2098432 516 2684354560 16672 167776256 0 67109120 1610614784 514 2097152 0 0 33587200 131072 0 1048576 536576 4194312 134217728 142606400 0 301989892 8929282 0 131201
shrinkage=0.1


Tree=63
num_leaves=9
num_cat=2
split_feature=6 2 0 8 6 8 6 8
split_gain=2837.66 19641.6 1123.22 5.06758e+08 3.22646e+15 2.92556e+06 2.02977e+17 56796
threshold=1.5000000000000002 0 1 11.500000000000002 16.500000000000004 7.5000000000000009 16.500000000000004 3.5000000000000004
decision_type=2 9 9 2 2 2 2 2
left_child=1 -1 3 5 -5 7 -7 -2
right_child=2 -3 -4 4 -6 6 -8 -9
leaf_value=4.6147296141768486 -0.84467297389743268 0.10314250762256666 -0.075871225512093188 -107548647817803.38 -0.099999995072620751 -2255294651656595 -2925.7714667317105 -335.85728362883953
leaf_weight=0.1778287012130022 25.295238924764487 218.34585678912816 247.0270945501361 1.7894353457432121e-15 1.7759945389328458e-08 -6.0093906525346972e-16 3.4179445243465787e-05 0.0050615400420096482
leaf_count=1466 8284 4411 10389 119 558 189 299 1285
internal_value=0 3.22711 -1.61082 -6.90253 -1.68919e+08 -9.51219 -292574 -9.11695
internal_weight=0 218.524 272.327 25.3003 1.77599e-08 25.3003 3.41794e-05 25.3003
internal_count=27000 5877 21123 10734 677 10057 488 9569
cat_boundaries=0 2 3
cat_threshold=1056768 256 22028
shrinkage=0.1


Tree=64
num_leaves=9
num_cat=2
split_feature=0 5 5 0 8 5 7 7
split_gain=5467.41 8.10134e+09 21184.8 1080.13 89569.9 1.91225e+08 3.30356e+09 242651
threshold=0 1.5000000000000002 30.500000000000004 1 7.5000000000000009 19.500000000000004 6.5000000000000009 8.5000000000000018
decision_type=9 2 2 9 2 2 2 2
left_child=1 -1 -3 4 -2 6 -6 -7
right_child=3 2 -4 -5 5 7 -8 -9
leaf_value=2089054.6696847589 -0.17889596558369122 -1.2018758043177218 -355.48048086061476 0.13191389747536827 -111882451.58762765 -12169.719823094259 -814129.35372029385 -0.10004787679240733
leaf_weight=1.8563420661864871e-05 150.72727165777061 6.1484730019002027 0.0016883189991253591 340.85138735214809 2.6813846508424474e-09 1.6434352110908273e-05 2.0881205182315954e-06 0.0053827874783149996
leaf_count=283 16673 932 102 7692 293 554 105 366
internal_value=0 19.0649 -12.9913 0.341262 -1.81451 -4074.08 -9.56571e+06 -371.424
internal_weight=0 6.15018 6.15016 491.584 150.733 0.00540131 2.0908e-06 0.00539922
internal_count=27000 1317 1034 25683 17991 1318 398 920
cat_boundaries=0 1 2
cat_threshold=17440 364556870
shrinkage=0.1


Tree=65
num_leaves=9
num_cat=4
split_feature=3 5 7 3 2 5 7 1
split_gain=34964.3 4.76343e+20 12636.6 1240.64 3854.34 21199.9 7217.68 455.475
threshold=0 1.5000000000000002 2.5000000000000004 1 2 2.5000000000000004 1.5000000000000002 3
decision_type=9 2 2 9 9 2 2 9
left_child=1 -1 -3 7 5 6 -5 -2
right_child=3 2 -4 4 -6 -7 -8 -9
leaf_value=69045184149236392 -0.10728458673576252 -32.329576167345628 -1.8582113310186559 13.482309139606222 0.054546515353798321 -0.37541367478625376 -0.56540274408990643 -0.64847374987563755
leaf_weight=-7.9928146485283916e-19 235.87655983083596 0.17378107682411614 0.62760309583075513 2.1681877186551475 230.02414248014094 4.1821649356876085 0.43997054442474359 8.3816537725825793
leaf_count=108 17783 167 100 496 5958 1056 202 1130
internal_value=0 57.5903 -84.6596 0.0449439 1.64115 16.3269 111.126 -1.50629
internal_weight=0 0.801384 0.801384 481.073 236.814 6.79032 2.60816 244.258
internal_count=27000 375 267 26625 7712 1754 698 18913
cat_boundaries=0 8 24 25 120
cat_threshold=524288 0 0 131104 0 0 0 1048576 0 0 0 234883584 33685697 0 10493952 2098432 524 2684354560 536887296 33558528 0 67108864 1610614800 514 8192 2 0 0 0 0 0 0 0 0 0 0 0 0 0 0 0 0 0 0 0 0 0 0 0 0 0 0 0 0 0 0 0 0 0 0 0 0 0 0 0 0 0 0 0 0 0 0 0 0 0 0 0 0 0 0 0 0 0 0 0 0 0 0 0 0 0 0 0 0 0 0 0 0 0 0 0 0 0 0 0 0 0 0 0 0 0 0 0 0 0 0 0 0 0 16777216
shrinkage=0.1


Tree=66
num_leaves=9
num_cat=4
split_feature=2 6 6 2 6 0 7 0
split_gain=11207.8 2.36364e+20 8.95177e+15 1033.63 1434.65 2617.08 994.855 786.324
threshold=0 1.5000000000000002 8.5000000000000018 1 1.5000000000000002 2 1.5000000000000002 3
decision_type=9 2 2 9 2 9 2 9
left_child=1 -1 6 4 5 -2 -3 -6
right_child=3 2 -4 -5 7 -7 -8 -9
leaf_value=59567609238834384 1.9939999389648435 -8.2589039806364202 -270215977642229.75 -0.21214299086194349 0.043553848755834894 0.21442359081002263 -0.91228873436710622 -0.51185726269949861
leaf_weight=-3.338661888523998e-16 0 0.21807298919742968 1.1022302099766281e-16 124.66461170606391 218.3416342118866 106.52160226114199 1.1910908806085814 18.723737996978315
leaf_count=131 456 118 112 12148 2045 2726 123 9141
internal_value=0 31.9851 -22.621 0.24254 1.13601 4.21745 -20.492 -0.200674
internal_weight=0 1.40916 1.40916 468.252 343.587 106.522 1.40916 237.065
internal_count=27000 484 353 26516 14368 3182 241 11186
cat_boundaries=0 2 5 6 7
cat_threshold=276824064 256 17506464 19992640 32768 16896 412877088
shrinkage=0.1


Tree=67
num_leaves=9
num_cat=2
split_feature=3 5 3 8 5 8 5 5
split_gain=35305.7 4.27467e+20 1140.9 26800.5 7.05781e+12 1076.56 2.07194e+15 927.949
threshold=0 1.5000000000000002 1 7.5000000000000009 30.500000000000004 1.5000000000000002 3.5000000000000004 1.5000000000000002
decision_type=9 2 9 2 2 2 2 2
left_child=1 -1 3 5 -5 -2 -7 -4
right_child=2 -3 7 4 -6 6 -8 -9
leaf_value=62050593741765352 -0.22500558462967418 -8.4216447244354367 0.31294565643125538 -35289044901.407036 -0.10011605644190465 -17266196654455.672 -2.3003572494293629 -0.035126528981553912
leaf_weight=1.1022302099766281e-16 112.5431816438705 0.7574387678343466 131.42574356509135 5.6673812412556822e-11 0.014888829863321929 6.8499961337907306e-14 1.0469953815332373 183.57831598262851
leaf_count=109 9958 277 2001 297 518 1050 4122 8668
internal_value=0 58.1097 0.0854485 -2.50255 -1344.29 -2.54699 -34.4649 1.06708
internal_weight=0 0.757439 428.609 113.605 0.0148888 113.59 1.047 315.004
internal_count=27000 386 26614 15945 815 15130 5172 10669
cat_boundaries=0 8 24
cat_threshold=524288 0 0 131104 0 0 0 1048576 8 0 0 201345536 4161 0 10485760 2098432 16777736 536870912 536887296 33558528 0 75497472 1612711952 642
shrinkage=0.1


Tree=68
num_leaves=9
num_cat=2
split_feature=2 5 8 5 2 8 9 8
split_gain=11294.7 1.77273e+20 4e+15 1768 11804.6 834.948 60012.5 3.6e+16
threshold=0 1.5000000000000002 1.5000000000000002 1.5000000000000002 1 1.5000000000000002 3.5000000000000004 3.5000000000000004
decision_type=9 2 2 2 9 2 2 2
left_child=1 -1 -3 4 -2 -5 7 -7
right_child=3 2 -4 5 -6 6 -8 -9
leaf_value=44675706929125784 3.6829577126449515 -1.6024461797667997 -180143985094819.88 -0.030003704237879448 0.11138915798865423 -165.48978958563933 -0.71014373171233502 -600479950316066.13
leaf_weight=-1.1182158392736849e-16 0.01407268772891257 1.376316900440494 1.1022302099766281e-16 298.63454544899213 152.79679114688861 0.013906597548506096 7.6303740259530084 -7.9928146485283916e-19
leaf_count=126 1437 200 172 10892 4332 1793 7897 151
internal_value=0 32.765 -17.4776 0.80443 3.60022 -0.564198 -10.884 -2086.35
internal_weight=0 1.37632 1.37632 459.09 152.811 306.279 7.64428 0.0139066
internal_count=27000 498 372 26502 5769 20733 9841 1944
cat_boundaries=0 2 3
cat_threshold=276824064 256 1056768
shrinkage=0.1


Tree=69
num_leaves=9
num_cat=2
split_feature=3 5 3 5 7 7 5 5
split_gain=28887.4 3.48615e+20 1245.32 943.463 818.806 13862.4 397.652 3490.55
threshold=0 2.5000000000000004 1 1.5000000000000002 15.500000000000002 17.500000000000004 16.500000000000004 15.500000000000002
decision_type=9 2 9 2 2 2 2 2
left_child=1 -1 4 -4 6 -6 7 -2
right_child=2 -3 3 -5 5 -7 -8 -9
leaf_value=59067209280237664 -0.28987183819321499 -33.205007697279903 0.41780318860577492 0.0014651096679099563 -122.52186654992143 -1.190161243894077 0.11944152988585738 -19.874629138814853
leaf_weight=-7.9928146485283916e-19 119.40277871275893 0.12687936169261854 82.619168736124493 159.52199163437615 0.0098022111014928488 0.2393124461177297 27.106156320750401 0.09107271783501758
leaf_count=171 14936 182 1755 7399 110 435 1850 162
internal_value=0 54.1203 0.00206835 1.37829 -2.21039 -59.6434 -2.26357 -3.04798
internal_weight=0 0.126879 388.99 242.141 146.849 0.249115 146.6 119.494
internal_count=27000 353 26647 9154 17493 545 16948 15098
cat_boundaries=0 8 24
cat_threshold=524288 0 0 131072 0 0 0 1048576 8 0 0 234900000 33558593 0 10485760 2098432 16777736 2684354560 536887296 33558528 0 67108864 1610614800 512
shrinkage=0.1


Tree=70
num_leaves=9
num_cat=1
split_feature=3 5 5 8 5 5 8 5
split_gain=22056.5 3.47434e+20 1.66325e+12 1234.63 4.80384e+16 2.15552e+17 2e+15 3313.25
threshold=0 1.5000000000000002 3.5000000000000004 1.5000000000000002 3.5000000000000004 2.5000000000000004 2.5000000000000004 16.500000000000004
decision_type=9 2 2 2 2 2 2 2
left_child=1 -1 -3 -2 5 -5 -7 -6
right_child=3 2 -4 4 7 6 -8 -9
leaf_value=58967129288518312 0.047035653738572616 -2445959347.3718829 -5.193131544142978 -0.53333333333333333 -8.8970514590960441 -899999996735255.75 -699999997460754.5 -0.25575817914296156
leaf_weight=-7.9928146485283916e-19 412.69077902716703 2.7800942651091357e-09 0.56063300133861893 4.3290705145732577e-15 0.50446686811818864 0 0 3.6839451894646151
leaf_count=107 16680 127 151 735 5105 631 190 3274
internal_value=0 46.5962 -173.223 0.290029 -16.7855 -3.0024e+15 -1.6e+16 -12.9655
internal_weight=0 0.560633 0.560633 416.879 4.18841 4.32907e-15 0 4.18841
internal_count=27000 385 278 26615 9935 1556 821 8379
cat_boundaries=0 8
cat_threshold=524288 0 0 131104 0 0 0 1048576
shrinkage=0.1


Tree=71
num_leaves=9
num_cat=2
split_feature=3 5 9 3 8 9 9 8
split_gain=34989.6 4.74963e+20 3.60288e+18 1391.07 126789 1.93506e+14 4.40819e+17 26033.4
threshold=0 1.5000000000000002 3.5000000000000004 1 3.5000000000000004 15.500000000000002 12.500000000000002 1.5000000000000002
decision_type=9 2 2 9 2 2 2 2
left_child=1 -1 -3 4 7 6 -6 -2
right_child=3 2 -4 -5 5 -7 -8 -9
leaf_value=68945104157517056 -0.31513913748662886 -6004799503160660 -29.195581237091687 0.10910421265000839 -172773461513.6514 -0.10004238094274667 -2099999992382263.3 -104.69382997562448
leaf_weight=-7.9928146485283916e-19 81.191734179973665 -7.9928146485283916e-19 0.089248880079880286 280.02174238455387 4.0505481594635501e-12 0.0061763451118522659 0 0.023902004104811136
leaf_count=111 10874 133 139 8924 1109 1485 217 4008
internal_value=0 59.7511 -964.233 0.0202802 -3.38622 -4534.43 -6.91094e+12 -3.45858
internal_weight=0 0.0892489 0.0892489 361.244 81.2218 0.00617635 4.05055e-12 81.2156
internal_count=27000 383 272 26617 17693 2811 1326 14882
cat_boundaries=0 8 24
cat_threshold=524288 0 0 131104 0 0 0 1048576 0 0 0 738200064 33558721 0 10493952 2098432 16777740 536870912 536887296 167776256 0 67109120 538970112 2
shrinkage=0.1


Tree=72
num_leaves=9
num_cat=1
split_feature=0 6 6 8 8 9 6 9
split_gain=11446.6 1.3324e+20 1e+15 158568 1293.98 5.6295e+16 8.47019e+17 4.5e+17
threshold=0 1.5000000000000002 30.500000000000004 1.5000000000000002 1.5000000000000002 3.5000000000000004 2.5000000000000004 2.5000000000000004
decision_type=9 2 2 2 2 2 2 2
left_child=1 -1 3 -3 -2 6 -6 -8
right_child=4 2 -4 -5 5 -7 7 -9
leaf_value=27387514374953372 0.06167411566586032 -1.2965125618621365 -112589990684262.41 -7930.9277431275714 -0 -1.0202920162635027 -2999999989117519 -0
leaf_weight=7.7635683577275674e-16 353.36233502356623 4.5976946287720812 -1.1182158392736849e-16 2.5218042591811684e-05 1.498721155097476e-14 3.2250992526873419 0 0
leaf_count=294 15876 759 101 170 720 7864 336 880
internal_value=0 29.0381 -13.6176 -13.4001 0.422894 -19.505 -1.8765e+15 -3e+16
internal_weight=0 4.59772 4.59772 4.59772 356.587 3.2251 1.49872e-14 0
internal_count=27000 1324 1030 929 25676 9800 1936 1216
cat_boundaries=0 1
cat_threshold=17440
shrinkage=0.1


Tree=73
num_leaves=9
num_cat=1
split_feature=2 5 8 8 9 5 8 5
split_gain=12004.8 1.42534e+20 1e+15 2216.06 3.96317e+16 4.47368e+17 2.42e+17 3.66146e+13
threshold=0 1.5000000000000002 1.5000000000000002 1.5000000000000002 3.5000000000000004 2.5000000000000004 4.5000000000000009 5.5000000000000009
decision_type=9 2 2 2 2 2 2 2
left_child=1 -1 -3 -2 5 -5 -7 -6
right_child=3 2 -4 4 7 6 -8 -9
leaf_value=35830637535848032 0.069954082056098016 -2.4437039811002315 -100079991719344.36 -0 -3661463111683.4346 -2199999992019514 -0 -2.274811162694137
leaf_weight=1.1022302099766281e-16 359.42901611309264 0.93052700377998576 -7.9928146485283916e-19 1.1212453267249227e-14 2.6311486402151357e-14 0 0 1.3946166460482525
leaf_count=126 16633 197 171 738 1341 1104 114 6576
internal_value=0 34.2216 -25.5117 0.530469 -39.2401 -1.80144e+15 -2.2e+16 -23.4652
internal_weight=0 0.930527 0.930527 360.824 1.39462 1.12125e-14 0 1.39462
internal_count=27000 494 368 26506 9873 1956 1218 7917
cat_boundaries=0 2
cat_threshold=276824064 256
shrinkage=0.1


Tree=74
num_leaves=9
num_cat=1
split_feature=3 5 5 8 9 5 9 5
split_gain=26284.5 3.47133e+20 3.72075e+18 10960.4 2.95035e+16 5.01055e+17 2.645e+17 8.71957e+07
threshold=0 1.5000000000000002 3.5000000000000004 1.5000000000000002 3.5000000000000004 2.5000000000000004 2.5000000000000004 16.500000000000004
decision_type=9 2 2 2 2 2 2 2
left_child=1 -1 -3 -2 5 -5 -7 -6
right_child=3 2 -4 4 7 6 -8 -9
leaf_value=58915986938745104 -0.029790243366749954 -6099584716480285 -650.16325098127879 0.079256965944272451 -300686.87979959667 -2299999991656764.5 -0 -0.46719937904402431
leaf_weight=6.808027313556439e-20 377.18657424005227 6.808027313556439e-20 0.0019998032757846448 1.6930101844068784e-14 9.6445876391340943e-06 0 0 0.25731548236902968
leaf_count=107 16669 129 144 736 4774 347 906 3188
internal_value=0 51.5095 -37004.6 -0.427332 -206.751 -1.28276e+15 -2.3e+16 -117.37
internal_weight=0 0.0019998 0.0019998 377.444 0.257325 1.69301e-14 0 0.257325
internal_count=27000 380 273 26620 9951 1989 1253 7962
cat_boundaries=0 8
cat_threshold=524288 0 0 131104 0 0 0 1048576
shrinkage=0.1


Tree=75
num_leaves=9
num_cat=1
split_feature=3 5 9 8 9 5 5 9
split_gain=39411.8 2.78183e+20 1.5125e+18 14416.5 4.53976e+06 3.19817e+17 2.09573e+13 1.59884e+16
threshold=0 1.5000000000000002 4.5000000000000009 2.5000000000000004 14.500000000000002 16.500000000000004 26.500000000000004 11.500000000000002
decision_type=9 2 2 2 2 2 2 2
left_child=1 -1 -3 -2 6 -6 7 -5
right_child=3 2 -4 4 5 -7 -8 -9
leaf_value=69089997613146000 0.0082897937310965307 -5499999980048785 -0 -116429678424.66829 -1776762592716031.3 -0.10004503898512718 -0.10000058152840055 -399999998549002.5
leaf_weight=0 398.06641163824531 0 0 6.8701003141512324e-12 1.3078506342961618e-17 0.062669842945491119 3.1655697154673354e-05 0
leaf_count=105 20957 161 107 2204 192 2636 155 483
internal_value=0 63.59 -5.5e+16 0.00719418 -479.458 -288.22 -379080 -1.74645e+12
internal_weight=0 0 0 398.129 0.0627015 0.0626698 3.16557e-05 6.8701e-12
internal_count=27000 373 268 26627 5670 2828 2842 2687
cat_boundaries=0 8
cat_threshold=524288 0 0 131104 0 0 0 1048576
shrinkage=0.1


Tree=76
num_leaves=9
num_cat=4
split_feature=3 7 5 3 2 5 0 5
split_gain=30517.1 1313.85 166764 1120.49 1429.71 6.04597e+07 730.782 1.26206e+06
threshold=0 15.500000000000002 17.500000000000004 1 2 1.5000000000000002 3 40.000000000000007
decision_type=9 2 2 9 9 2 9 2
left_child=-1 3 -3 6 5 -5 7 -2
right_child=1 2 -4 4 -6 -7 -8 -9
leaf_value=5.5619998168945308 -2.2175309627420052 -1200.5335584272109 -0.10693217594299594 34277.30064139056 0.034245248974218552 -0.62827067543729298 -0.15677050413775948 -63107.464095576295
leaf_weight=0 6.904925629711002 0.0011662453179344104 0.15016926800839492 0.00051462777082622515 215.62914522139218 3.972186857430918 121.94205236759221 3.1692022445231951e-06
leaf_count=209 4210 101 770 469 7766 1684 11629 162
internal_value=0 -0.411085 -93.5785 -0.382419 0.996123 10.8386 -2.60694 -9.17596
internal_weight=0 348.6 0.151336 348.449 219.602 3.9727 128.847 6.90493
internal_count=27000 26791 871 25920 9919 2153 16001 4372
cat_boundaries=0 8 24 25 26
cat_threshold=0 0 0 131104 0 0 0 1048576 524296 0 0 234899456 33689793 0 10485760 2098432 16777728 2684354560 16384 33558528 0 67108864 1612709888 515 8192 545280
shrinkage=0.1


Tree=77
num_leaves=9
num_cat=2
split_feature=3 9 5 0 5 5 5 5
split_gain=10878.7 9.62727e+19 1.352e+18 1195.34 1e+15 inf 9040.4 181988
threshold=0 1.5000000000000002 4.5000000000000009 1 91.500000000000014 124.00000000000001 27.500000000000004 30.500000000000004
decision_type=9 2 2 9 2 2 2 2
left_child=1 -1 -3 4 6 -6 -2 -8
right_child=3 2 -4 -5 5 -7 7 -9
leaf_value=38679998638985424 -0.93518400899544418 -5199999981137033 -0 0.053006597841018313 -1.7976931348623158e+307 -0 -19104.575541332993 -0.10000881869053441
leaf_weight=0 18.707898176829605 0 0 367.20393424243645 -1.0000000036274937e-15 0 5.2343755615450089e-06 0.00010517564653311884
leaf_count=105 14337 149 101 10993 145 162 152 856
internal_value=0 33.48 -5.2e+16 0.0580674 -6.1639 -1.79769e+308 -9.40524 -9058.15
internal_weight=0 0 0 385.912 18.708 -1e-15 18.708 0.00011041
internal_count=27000 355 250 26645 15652 307 15345 1008
cat_boundaries=0 8 9
cat_threshold=524288 0 0 131072 0 0 0 1048576 18929156
shrinkage=0.1


Tree=78
num_leaves=9
num_cat=2
split_feature=3 5 5 7 5 3 7 7
split_gain=38924.8 2.79677e+20 1.7405e+18 1021.43 1.29704e+18 912.503 419.725 28392.4
threshold=0 1.5000000000000002 4.5000000000000009 15.500000000000002 17.500000000000004 1 6.5000000000000009 7.5000000000000009
decision_type=9 2 2 2 2 9 2 2
left_child=1 -1 -3 5 -5 6 -2 -8
right_child=3 2 -4 4 -6 -7 7 -9
leaf_value=68889997613871504 -0.52085608029951136 -5899999978597788 -0 -10808639105689192 -0.10656596116301929 0.035506347522059854 -411.42374748004522 -2.0221031796213031
leaf_weight=0 36.272857556744221 0 0 -8.8897770116497807e-16 0.14380401422266675 335.15560738826264 0.0017018231798552319 0.36669803701672632
leaf_count=106 13704 159 108 102 777 11147 208 689
internal_value=0 62.99 -5.9e+16 -0.243355 -84.5126 -0.217307 -4.35979 -39.1333
internal_weight=0 0 0 371.941 0.143804 371.797 36.6413 0.3684
internal_count=27000 373 267 26627 879 25748 14601 897
cat_boundaries=0 8 24
cat_threshold=524288 0 0 131104 0 0 0 1048576 8 0 0 201345024 33558721 0 10485760 2098432 16777732 2684354560 545275904 33558528 0 67108864 1612711936 513
shrinkage=0.1


Tree=79
num_leaves=9
num_cat=1
split_feature=3 5 5 8 5 8 8 8
split_gain=39202.2 2.79677e+20 1.568e+18 20531.6 2.14067e+06 4.84e+17 2.41995e+17 1327.01
threshold=0 1.5000000000000002 4.5000000000000009 2.5000000000000004 17.500000000000004 3.5000000000000004 11.500000000000002 1.5000000000000002
decision_type=9 2 2 2 2 2 2 2
left_child=1 -1 -3 7 5 -5 -7 -2
right_child=3 2 -4 4 -6 6 -8 -9
leaf_value=68989997613508752 -0.014838173740936034 -5699999979323286 -99999999637250.625 -2110.597525184382 -0.10003721212458774 -2199969478081043.3 -0 -7.1032199426886935
leaf_weight=0 366.23639472337373 0 0 0.00047382192768098599 0.049518585309118325 1.3870164511289168e-20 0 0.26429786346886786
leaf_count=105 16706 164 110 1337 2667 1476 162 4273
internal_value=0 63.19 -5.8e+16 -0.279289 -641.098 -67536.9 -2.19997e+16 -0.199499
internal_weight=0 0 0 366.551 0.0499924 0.000473822 1.38702e-20 366.501
internal_count=27000 379 274 26621 5642 2975 1638 20979
cat_boundaries=0 8
cat_threshold=524288 0 0 131104 0 0 0 1048576
shrinkage=0.1


Tree=80
num_leaves=9
num_cat=1
split_feature=8 6 6 8 8 9 3 6
split_gain=44271.4 1.43548e+17 1.89095e+18 1.0125e+18 1.0125e+18 71064.6 6770.44 610234
threshold=1.5000000000000002 16.500000000000004 2.5000000000000004 11.500000000000002 8.5000000000000018 4.5000000000000009 0 2.5000000000000004
decision_type=2 2 2 2 2 2 9 2
left_child=6 2 -2 4 -4 -3 7 -1
right_child=1 5 3 -5 -6 -7 -8 -9
leaf_value=127.55340341688132 0.10073782587309395 -7108.6448746038259 -4499999983676278.5 -0 -0 -0.10004032378269477 -0.0046838491870438504 0.056198430432374262
leaf_weight=0.38154656105460816 1.3106771303015903e-14 1.4067576664686976e-05 0 0 0 0.048008865877583989 338.68624225309742 23.304889700281102
leaf_count=142 731 125 5695 129 154 3217 16621 186
internal_value=0 -958.876 -3.18996e+15 -4.5e+16 -4.5e+16 -21.8238 1.3341 14.836
internal_weight=0 0.0480229 1.31068e-14 0 0 0.0480229 362.373 23.6864
internal_count=27000 10051 6709 5978 5849 3342 16949 328
cat_boundaries=0 14
cat_threshold=0 0 0 131104 0 0 0 0 0 0 0 0 0 8388608
shrinkage=0.1


Tree=81
num_leaves=9
num_cat=0
split_feature=8 5 8 8 8 9 7 7
split_gain=51509.7 1.10801e+10 9e+17 4.5e+17 4.5e+17 4.0032e+15 2.08277e+15 5.22179e+13
threshold=1.5000000000000002 17.500000000000004 2.5000000000000004 11.500000000000002 8.5000000000000018 4.5000000000000009 4.5000000000000009 3.5000000000000004
decision_type=2 2 2 2 2 2 2 2
left_child=-1 2 6 4 -4 -3 7 -2
right_child=1 5 3 -5 -6 -7 -8 -9
leaf_value=0.1460179193295425 -23141933903639.348 -200159983438688.28 -2999999989117519 -0 -0 -0.10003008702807553 -2861621.5103560016 0.35523285216843925
leaf_weight=345.23806409694828 3.7890440343644799e-14 -7.9928146485283916e-19 0 0 0 0.041256040041955662 1.747261169241041e-07 1.0842021724855044e-19
leaf_count=16952 2933 117 2666 164 182 2993 610 383
internal_value=0 -1115.98 -2.51823e+08 -3e+16 -3e+16 -49.4781 -8.01254e+07 -2.31419e+14
internal_weight=0 0.0412562 1.74726e-07 0 0 0.041256 1.74726e-07 3.78905e-14
internal_count=27000 10048 6938 3012 2848 3110 3926 3316
shrinkage=0.1


Tree=82
num_leaves=9
num_cat=1
split_feature=8 5 5 8 8 9 0 5
split_gain=62071.1 1.08638e+17 2.01267e+18 1.058e+18 1.058e+18 3.97559e+15 14527.1 1.36691e+12
threshold=1.5000000000000002 16.500000000000004 2.5000000000000004 11.500000000000002 8.5000000000000018 4.5000000000000009 0 1.5000000000000002
decision_type=2 2 2 2 2 2 9 2
left_child=6 2 -2 4 -4 -3 7 -1
right_child=1 5 3 -5 -6 -7 -8 -9
leaf_value=284475897.6520043 0.036480228001425009 -198779569759801.34 -4599999983313529 -0 -0 -0.10003336325277645 0.015551040995113825 -1.9606736185112681
leaf_weight=1.689070975300134e-07 1.8477475184640096e-14 6.1396124390543892e-18 0 0 0 0.037261473310289672 309.59818899883135 2.3541567947953959
leaf_count=594 737 135 5701 134 151 3173 15337 1038
internal_value=0 -1289.19 -2.3617e+15 -4.6e+16 -4.6e+16 -54.6751 1.55166 35.1576
internal_weight=0 0.0372615 1.84775e-14 0 0 0.0372615 311.952 2.35416
internal_count=27000 10031 6723 5986 5852 3308 16969 1632
cat_boundaries=0 1
cat_threshold=1568
shrinkage=0.1


Tree=83
num_leaves=9
num_cat=2
split_feature=0 5 7 5 7 7 9 0
split_gain=15827.7 1.50402e+20 1e+15 134335 163242 1330.37 9.25514e+13 1249.05
threshold=0 1.5000000000000002 14.500000000000002 2.5000000000000004 1.5000000000000002 15.500000000000002 17.500000000000004 1
decision_type=9 2 2 2 2 2 2 9
left_child=1 -1 3 4 -3 7 -7 -2
right_child=5 2 -4 -5 -6 6 -8 -9
leaf_value=31107005015916552 -0.76940580221344368 -280.08618324566129 -90071992547409.938 -0.64087974820660587 -2233.1916831568028 -711934155020.74451 -0.10770364459740459 0.069919555506958705
leaf_weight=5.5431223084772543e-16 8.6669515658666487 0.009643339399116992 1.1022302099766281e-16 1.4592930384182918 0.00044780965254176327 1.8250115641729831e-12 0.13053649979320178 353.66876218908982
leaf_count=573 12200 192 101 1182 207 123 666 11756
internal_value=0 38.0262 -32.2328 -31.5523 -3667.58 0.261797 -100.666 0.305382
internal_weight=0 1.46938 1.46938 1.46938 0.0100911 362.466 0.130536 362.336
internal_count=27000 2255 1682 1581 399 24745 789 23956
cat_boundaries=0 1 2
cat_threshold=1568 53252
shrinkage=0.1


Tree=84
num_leaves=9
num_cat=3
split_feature=2 5 7 5 5 5 0 0
split_gain=6865.71 2.45208e+13 1345.74 1.77573e+06 4e+17 2089.64 1154.3 1622.75
threshold=0 2.5000000000000004 8.5000000000000018 16.500000000000004 14.500000000000002 10.500000000000002 1 2
decision_type=9 2 2 2 2 2 9 9
left_child=1 -1 6 4 5 -4 -2 -8
right_child=2 -3 3 -5 -6 -7 7 -9
leaf_value=8540853492.370369 -0.15760534364641363 -0.36594430613870865 -612.01765626590145 -0.10690681260778967 -1999972252800949 -0.10000847384596541 0.04281099431404907 0.85557726149879376
leaf_weight=3.3614896413958997e-09 177.87691231824439 1.2031515935685151 0.00016341869911133208 0.33971603068403239 1.3870164511289168e-20 8.4747459143681348e-05 127.2201922022051 21.904936668341506
leaf_count=115 20030 166 122 1380 142 177 3343 1525
internal_value=0 25.2337 0.0422398 -62.8402 -84621.7 -4030.51 0.108907 2.08463
internal_weight=0 1.20315 327.342 0.339964 0.000248166 0.000248166 327.002 149.125
internal_count=27000 281 26719 1821 441 299 24898 4868
cat_boundaries=0 2 3 8
cat_threshold=268435456 256 70186318 143657504 8 0 0 8388608
shrinkage=0.1


Tree=85
num_leaves=9
num_cat=3
split_feature=3 5 7 7 7 2 5 3
split_gain=18844 1.48785e+20 1.458e+18 1814.41 7.64655e+06 619.028 7342.24 283.964
threshold=0 1.5000000000000002 2.5000000000000004 15.500000000000002 17.500000000000004 1 1.5000000000000002 2
decision_type=9 2 2 2 2 9 2 9
left_child=1 -1 -3 5 -5 6 -2 -8
right_child=3 2 -4 4 -6 -7 7 -9
leaf_value=49149998295829792 4.9324501109157586 -5399999980411534 -0 -54631.15069071023 -0.10621767224440229 -0.14744890411295644 0.064521039025380061 -0.37355056531972963
leaf_weight=0 3.1119046168221578 0 0 2.5626452032508662e-05 0.10931132376772258 182.32788461602252 147.06870405078939 6.4124226020871609
leaf_count=107 1859 162 100 164 705 17696 2126 4081
internal_value=0 43.75 -5.4e+16 -0.298469 -129.107 -0.265721 1.16167 0.260838
internal_weight=0 0 0 339.03 0.109337 338.921 156.593 153.481
internal_count=27000 369 262 26631 869 25762 8066 6207
cat_boundaries=0 8 10 26
cat_threshold=524288 0 0 131104 0 0 0 1048576 140288 2097216 0 0 0 167805440 131584 0 9437184 533504 4194312 134217728 671088960 0 302120964 67649538 294928 131712
shrinkage=0.1


Tree=86
num_leaves=9
num_cat=1
split_feature=8 5 5 8 8 9 2 5
split_gain=76368.7 9.83111e+16 1.84244e+18 9.68e+17 9.68e+17 3.97559e+15 8169.69 5.84969e+19
